FANN_FLO_2.1
num_layers=3
learning_rate=0.700000
connection_rate=1.000000
network_type=0
learning_momentum=0.000000
training_algorithm=2
train_error_function=1
train_stop_function=0
cascade_output_change_fraction=0.010000
quickprop_decay=-0.000100
quickprop_mu=1.750000
rprop_increase_factor=1.200000
rprop_decrease_factor=0.500000
rprop_delta_min=0.000000
rprop_delta_max=50.000000
rprop_delta_zero=0.100000
cascade_output_stagnation_epochs=12
cascade_candidate_change_fraction=0.010000
cascade_candidate_stagnation_epochs=12
cascade_max_out_epochs=150
cascade_min_out_epochs=50
cascade_max_cand_epochs=150
cascade_min_cand_epochs=50
cascade_num_candidate_groups=2
bit_fail_limit=3.49999994039535522461e-01
cascade_candidate_limit=1.00000000000000000000e+03
cascade_weight_multiplier=4.00000005960464477539e-01
cascade_activation_functions_count=10
cascade_activation_functions=3 5 7 8 10 11 14 15 16 17 
cascade_activation_steepnesses_count=4
cascade_activation_steepnesses=2.50000000000000000000e-01 5.00000000000000000000e-01 7.50000000000000000000e-01 1.00000000000000000000e+00 
layer_sizes=26 71 26 
scale_included=0
neurons (num_inputs, activation_function, activation_steepness)=(0, 0, 0.00000000000000000000e+00) (0, 0, 0.00000000000000000000e+00) (0, 0, 0.00000000000000000000e+00) (0, 0, 0.00000000000000000000e+00) (0, 0, 0.00000000000000000000e+00) (0, 0, 0.00000000000000000000e+00) (0, 0, 0.00000000000000000000e+00) (0, 0, 0.00000000000000000000e+00) (0, 0, 0.00000000000000000000e+00) (0, 0, 0.00000000000000000000e+00) (0, 0, 0.00000000000000000000e+00) (0, 0, 0.00000000000000000000e+00) (0, 0, 0.00000000000000000000e+00) (0, 0, 0.00000000000000000000e+00) (0, 0, 0.00000000000000000000e+00) (0, 0, 0.00000000000000000000e+00) (0, 0, 0.00000000000000000000e+00) (0, 0, 0.00000000000000000000e+00) (0, 0, 0.00000000000000000000e+00) (0, 0, 0.00000000000000000000e+00) (0, 0, 0.00000000000000000000e+00) (0, 0, 0.00000000000000000000e+00) (0, 0, 0.00000000000000000000e+00) (0, 0, 0.00000000000000000000e+00) (0, 0, 0.00000000000000000000e+00) (0, 0, 0.00000000000000000000e+00) (26, 5, 5.00000000000000000000e-01) (26, 5, 5.00000000000000000000e-01) (26, 5, 5.00000000000000000000e-01) (26, 5, 5.00000000000000000000e-01) (26, 5, 5.00000000000000000000e-01) (26, 5, 5.00000000000000000000e-01) (26, 5, 5.00000000000000000000e-01) (26, 5, 5.00000000000000000000e-01) (26, 5, 5.00000000000000000000e-01) (26, 5, 5.00000000000000000000e-01) (26, 5, 5.00000000000000000000e-01) (26, 5, 5.00000000000000000000e-01) (26, 5, 5.00000000000000000000e-01) (26, 5, 5.00000000000000000000e-01) (26, 5, 5.00000000000000000000e-01) (26, 5, 5.00000000000000000000e-01) (26, 5, 5.00000000000000000000e-01) (26, 5, 5.00000000000000000000e-01) (26, 5, 5.00000000000000000000e-01) (26, 5, 5.00000000000000000000e-01) (26, 5, 5.00000000000000000000e-01) (26, 5, 5.00000000000000000000e-01) (26, 5, 5.00000000000000000000e-01) (26, 5, 5.00000000000000000000e-01) (26, 5, 5.00000000000000000000e-01) (26, 5, 5.00000000000000000000e-01) (26, 5, 5.00000000000000000000e-01) (26, 5, 5.00000000000000000000e-01) (26, 5, 5.00000000000000000000e-01) (26, 5, 5.00000000000000000000e-01) (26, 5, 5.00000000000000000000e-01) (26, 5, 5.00000000000000000000e-01) (26, 5, 5.00000000000000000000e-01) (26, 5, 5.00000000000000000000e-01) (26, 5, 5.00000000000000000000e-01) (26, 5, 5.00000000000000000000e-01) (26, 5, 5.00000000000000000000e-01) (26, 5, 5.00000000000000000000e-01) (26, 5, 5.00000000000000000000e-01) (26, 5, 5.00000000000000000000e-01) (26, 5, 5.00000000000000000000e-01) (26, 5, 5.00000000000000000000e-01) (26, 5, 5.00000000000000000000e-01) (26, 5, 5.00000000000000000000e-01) (26, 5, 5.00000000000000000000e-01) (26, 5, 5.00000000000000000000e-01) (26, 5, 5.00000000000000000000e-01) (26, 5, 5.00000000000000000000e-01) (26, 5, 5.00000000000000000000e-01) (26, 5, 5.00000000000000000000e-01) (26, 5, 5.00000000000000000000e-01) (26, 5, 5.00000000000000000000e-01) (26, 5, 5.00000000000000000000e-01) (26, 5, 5.00000000000000000000e-01) (26, 5, 5.00000000000000000000e-01) (26, 5, 5.00000000000000000000e-01) (26, 5, 5.00000000000000000000e-01) (26, 5, 5.00000000000000000000e-01) (26, 5, 5.00000000000000000000e-01) (26, 5, 5.00000000000000000000e-01) (26, 5, 5.00000000000000000000e-01) (26, 5, 5.00000000000000000000e-01) (26, 5, 5.00000000000000000000e-01) (26, 5, 5.00000000000000000000e-01) (26, 5, 5.00000000000000000000e-01) (26, 5, 5.00000000000000000000e-01) (26, 5, 5.00000000000000000000e-01) (26, 5, 5.00000000000000000000e-01) (26, 5, 5.00000000000000000000e-01) (26, 5, 5.00000000000000000000e-01) (0, 5, 0.00000000000000000000e+00) (71, 5, 5.00000000000000000000e-01) (71, 5, 5.00000000000000000000e-01) (71, 5, 5.00000000000000000000e-01) (71, 5, 5.00000000000000000000e-01) (71, 5, 5.00000000000000000000e-01) (71, 5, 5.00000000000000000000e-01) (71, 5, 5.00000000000000000000e-01) (71, 5, 5.00000000000000000000e-01) (71, 5, 5.00000000000000000000e-01) (71, 5, 5.00000000000000000000e-01) (71, 5, 5.00000000000000000000e-01) (71, 5, 5.00000000000000000000e-01) (71, 5, 5.00000000000000000000e-01) (71, 5, 5.00000000000000000000e-01) (71, 5, 5.00000000000000000000e-01) (71, 5, 5.00000000000000000000e-01) (71, 5, 5.00000000000000000000e-01) (71, 5, 5.00000000000000000000e-01) (71, 5, 5.00000000000000000000e-01) (71, 5, 5.00000000000000000000e-01) (71, 5, 5.00000000000000000000e-01) (71, 5, 5.00000000000000000000e-01) (71, 5, 5.00000000000000000000e-01) (71, 5, 5.00000000000000000000e-01) (71, 5, 5.00000000000000000000e-01) (0, 5, 0.00000000000000000000e+00) 
connections (connected_to_neuron, weight)=(0, 2.18518450856208801270e-01) (1, 5.68754896521568298340e-02) (2, 1.03098809719085693359e-01) (3, 9.24804955720901489258e-02) (4, -2.00793907046318054199e-01) (5, -4.98172730207443237305e-01) (6, 1.05270132422447204590e-01) (7, 7.11350619792938232422e-01) (8, -2.48134166002273559570e-01) (9, 7.40334033966064453125e-01) (10, -3.03791254758834838867e-01) (11, 4.53577101230621337891e-01) (12, -3.54265511035919189453e-01) (13, 3.92245411872863769531e-01) (14, -4.39001619815826416016e-02) (15, 2.95861393213272094727e-01) (16, -4.35956984758377075195e-01) (17, -4.97774958610534667969e-01) (18, 4.19966548681259155273e-01) (19, -2.79294192790985107422e-01) (20, 3.99242997169494628906e-01) (21, 2.48786270618438720703e-01) (22, 5.74581444263458251953e-01) (23, 6.49146258831024169922e-01) (24, -1.98542699217796325684e-01) (25, 3.75733315944671630859e-01) (0, -1.24434188008308410645e-01) (1, -4.25644993782043457031e-01) (2, -3.35860729217529296875e-01) (3, 1.31185993552207946777e-01) (4, 2.54437297582626342773e-01) (5, -5.08774459362030029297e-01) (6, -4.94874417781829833984e-02) (7, 7.56911560893058776855e-02) (8, -9.23005342483520507812e-01) (9, -3.24547588825225830078e-01) (10, -4.89291772246360778809e-02) (11, 1.79040699731558561325e-03) (12, 1.11972577869892120361e-01) (13, -4.17532444000244140625e-01) (14, -1.32853519916534423828e+00) (15, 6.10433757305145263672e-01) (16, 6.41496360301971435547e-01) (17, -3.93775813281536102295e-02) (18, 7.75446463376283645630e-03) (19, 1.95297098159790039062e+00) (20, 3.20519596338272094727e-01) (21, 4.12146687507629394531e-01) (22, -3.03489923477172851562e-01) (23, 2.69196796417236328125e+00) (24, 1.12986373901367187500e+00) (25, -1.63123626261949539185e-02) (0, -5.17117071151733398438e+00) (1, 8.98476791381835937500e+00) (2, 4.66624603271484375000e+02) (3, 1.26932811737060546875e+00) (4, -1.71713516116142272949e-01) (5, 8.69787597656250000000e+00) (6, 6.80494546890258789062e+00) (7, -1.76524388790130615234e+00) (8, 1.08825302124023437500e+00) (9, 2.37502837181091308594e+00) (10, 1.55146563053131103516e+00) (11, 1.50000000000000000000e+03) (12, 6.49517998099327087402e-02) (13, 1.61340224742889404297e+00) (14, 1.44415509700775146484e+00) (15, -9.04634177684783935547e-01) (16, 4.66110849380493164062e+00) (17, 2.01783686876296997070e-01) (18, 6.05373919010162353516e-01) (19, 1.87953412532806396484e-01) (20, -1.15433990955352783203e+00) (21, -5.27304410934448242188e+00) (22, 1.57982140779495239258e-01) (23, -3.17759774625301361084e-02) (24, -9.31531377136707305908e-03) (25, 4.67204928398132324219e-01) (0, 5.87821424007415771484e-01) (1, 1.78503587841987609863e-01) (2, 2.87297606468200683594e-01) (3, 9.08990144729614257812e-01) (4, -4.35547739267349243164e-01) (5, 2.20413014292716979980e-01) (6, 3.55587333440780639648e-01) (7, 2.43993297219276428223e-01) (8, 3.91769260168075561523e-01) (9, 7.27810442447662353516e-01) (10, 6.19206428527832031250e+00) (11, 6.68287813663482666016e-01) (12, -1.14000320434570312500e+00) (13, -5.19349992275238037109e-01) (14, -5.62057316303253173828e-01) (15, 8.66111040115356445312e-01) (16, -1.27328133583068847656e+00) (17, -8.33897650241851806641e-01) (18, -1.12942226231098175049e-01) (19, -1.79037705063819885254e-01) (20, 5.01560568809509277344e-01) (21, 9.48102056980133056641e-01) (22, 1.33657038211822509766e+00) (23, -7.73917198181152343750e-01) (24, -1.54141914844512939453e+00) (25, -8.98386240005493164062e-02) (0, 1.10352432727813720703e+00) (1, 4.73010292053222656250e+01) (2, 4.07372903823852539062e+00) (3, 5.29835700988769531250e-01) (4, 1.23029577732086181641e+00) (5, 3.82605522871017456055e-01) (6, 5.48138618469238281250e-01) (7, -1.09894549846649169922e+00) (8, 1.72778308391571044922e-01) (9, 7.39883124828338623047e-01) (10, 6.26137733459472656250e-01) (11, 2.55612343549728393555e-01) (12, 3.69147151708602905273e-01) (13, -7.50352442264556884766e-01) (14, -4.38618719577789306641e-01) (15, -8.37754011154174804688e-01) (16, 3.91412287950515747070e-01) (17, 3.35676461458206176758e-01) (18, -7.04932570457458496094e-01) (19, -1.91583788394927978516e+00) (20, 4.42033633589744567871e-02) (21, 7.18252837657928466797e-01) (22, -3.72498929500579833984e-01) (23, -2.06222131848335266113e-01) (24, -8.12916934490203857422e-01) (25, 2.26339191198348999023e-01) (0, 1.61283403635025024414e-01) (1, 5.64155340194702148438e-01) (2, 1.67450630664825439453e+00) (3, 2.72274110466241836548e-02) (4, 3.69430810213088989258e-01) (5, -2.06594675779342651367e-01) (6, 1.38605833053588867188e-01) (7, 5.03581821918487548828e-01) (8, 1.27232879400253295898e-01) (9, -4.34964388608932495117e-01) (10, -8.10092613101005554199e-02) (11, -4.70045536756515502930e-01) (12, -3.34659516811370849609e-01) (13, 8.07385087013244628906e-01) (14, 3.60034614801406860352e-01) (15, -3.01193952560424804688e-01) (16, 4.36090558767318725586e-01) (17, -8.42222049832344055176e-02) (18, 3.75031709671020507812e-01) (19, 2.22754925489425659180e-01) (20, -2.93300956487655639648e-01) (21, -3.88846248388290405273e-01) (22, 1.46721482276916503906e-01) (23, -2.66420185565948486328e-01) (24, 6.79862201213836669922e-01) (25, -3.40362817049026489258e-01) (0, -5.65900385379791259766e-01) (1, 3.27701896429061889648e-01) (2, 3.78682911396026611328e-01) (3, -1.44524896144866943359e+00) (4, 3.92280034720897674561e-02) (5, 5.67975118756294250488e-02) (6, 6.75348162651062011719e-01) (7, 2.69141525030136108398e-01) (8, 3.18299353122711181641e-01) (9, -9.11076426506042480469e-01) (10, 4.02770750224590301514e-03) (11, 9.53411221504211425781e-01) (12, 3.50599348545074462891e-01) (13, 2.83808201551437377930e-01) (14, 1.63131281733512878418e-01) (15, -6.67334377765655517578e-01) (16, -1.32926732301712036133e-01) (17, -1.96425542235374450684e-01) (18, 6.36352539062500000000e-01) (19, 1.74132317304611206055e-01) (20, -1.08468169346451759338e-02) (21, 3.37528996169567108154e-02) (22, -2.14604884386062622070e-01) (23, 1.33185744285583496094e-01) (24, 2.10767939686775207520e-01) (25, 2.37364932894706726074e-01) (0, -1.56852409243583679199e-01) (1, 5.03602743148803710938e-01) (2, -2.13805884122848510742e-01) (3, -8.13252866268157958984e-01) (4, -6.36205911636352539062e-01) (5, 4.25343304872512817383e-01) (6, 1.67828881740570068359e+00) (7, 1.50000000000000000000e+03) (8, -5.47927059233188629150e-02) (9, -1.47048145532608032227e-01) (10, 7.25936233997344970703e-01) (11, 6.31600499153137207031e-01) (12, -5.76713643968105316162e-02) (13, -6.57500624656677246094e-02) (14, -3.76525670289993286133e-01) (15, -2.62012839317321777344e-01) (16, -5.18621146678924560547e-01) (17, 6.99986457824707031250e-01) (18, -3.28247159719467163086e-01) (19, 6.18276178836822509766e-01) (20, -4.57088530063629150391e-01) (21, -1.41153797507286071777e-01) (22, 6.42883241176605224609e-01) (23, 5.32427251338958740234e-01) (24, -2.78812646865844726562e-01) (25, 6.62773787975311279297e-01) (0, 1.99417307972908020020e-01) (1, -2.60424494743347167969e-01) (2, -7.34862327575683593750e-01) (3, -5.90823471546173095703e-01) (4, -1.31241172552108764648e-01) (5, -4.38798856735229492188e+00) (6, 1.31499126553535461426e-01) (7, -1.16647446155548095703e+00) (8, -1.01223373413085937500e+00) (9, -5.59694087132811546326e-03) (10, 2.30111494660377502441e-01) (11, -9.69455111771821975708e-03) (12, -5.98199903964996337891e-01) (13, -6.85398995876312255859e-01) (14, -1.18668842315673828125e+00) (15, -4.87954676151275634766e-01) (16, 4.77958694100379943848e-02) (17, 5.26765882968902587891e-01) (18, 1.24106657505035400391e+00) (19, 4.71986198425292968750e+00) (20, -8.04620981216430664062e-01) (21, -4.13950026035308837891e-01) (22, 4.54990291595458984375e+00) (23, 3.96500539779663085938e+00) (24, 1.79489946365356445312e+00) (25, 2.63029515743255615234e-01) (0, -5.12351751327514648438e-01) (1, -9.65716004371643066406e-01) (2, 1.09090995788574218750e+00) (3, -3.04350158691406250000e+02) (4, -5.05731403827667236328e-01) (5, 7.72416412830352783203e-01) (6, 5.71694433689117431641e-01) (7, -1.46555855870246887207e-01) (8, 6.86835289001464843750e-01) (9, -3.03416281938552856445e-01) (10, -8.68562698364257812500e-01) (11, -3.57475876808166503906e-01) (12, -6.03198349475860595703e-01) (13, -1.47521406412124633789e-01) (14, 3.31524908542633056641e-01) (15, 1.00596213340759277344e+00) (16, 3.06596904993057250977e-01) (17, 1.73975348472595214844e-01) (18, -5.16240119934082031250e-01) (19, 2.20962211489677429199e-01) (20, 1.81954652070999145508e-01) (21, -2.18043714761734008789e-01) (22, 6.12423419952392578125e-01) (23, -2.09096029400825500488e-01) (24, -1.51365846395492553711e-01) (25, 7.73558616638183593750e-02) (0, -3.24072957038879394531e-01) (1, -8.74786615371704101562e-01) (2, 4.24180209636688232422e-01) (3, -5.01850470900535583496e-02) (4, 3.52477818727493286133e-01) (5, 1.63954293727874755859e+00) (6, -8.95791292190551757812e-01) (7, 2.02036321163177490234e-01) (8, 9.65555310249328613281e-02) (9, 3.57731699943542480469e-01) (10, 4.98912006616592407227e-01) (11, 2.96895712614059448242e-01) (12, 3.52340281009674072266e-01) (13, -3.69313091039657592773e-01) (14, 4.78994703292846679688e+00) (15, 1.93649971485137939453e+00) (16, 1.06866729259490966797e+00) (17, 4.28582221269607543945e-01) (18, -3.90283107757568359375e-01) (19, 1.53396844863891601562e-01) (20, 8.05819034576416015625e-01) (21, 4.45071101188659667969e-01) (22, -5.57416379451751708984e-01) (23, 3.46110194921493530273e-01) (24, -2.63997346162796020508e-01) (25, 3.87740790843963623047e-01) (0, 2.07534089684486389160e-01) (1, -1.01686680316925048828e+00) (2, 1.83417022228240966797e+00) (3, 4.34329557418823242188e+00) (4, 2.40677809715270996094e+00) (5, -9.30631697177886962891e-01) (6, -1.87045708298683166504e-01) (7, -1.29669815301895141602e-01) (8, 2.51706659793853759766e-01) (9, 9.56795898437500000000e+02) (10, -4.77824091911315917969e-01) (11, -8.11174094676971435547e-01) (12, 1.33294165134429931641e+00) (13, 4.22243833541870117188e-01) (14, 6.65000557899475097656e-01) (15, 9.10318493843078613281e-01) (16, -1.15088194608688354492e-01) (17, -5.02309560775756835938e-01) (18, -1.90408140420913696289e-01) (19, 1.23895144462585449219e+00) (20, -2.28395104408264160156e-01) (21, 3.56548547744750976562e-01) (22, 5.30388236045837402344e-01) (23, -1.35209619998931884766e-01) (24, -5.01091241836547851562e-01) (25, 4.50959980487823486328e-01) (0, -4.11364287137985229492e-01) (1, 6.08106076717376708984e-01) (2, -1.92341172695159912109e+00) (3, 7.32662528753280639648e-02) (4, -2.60858330875635147095e-02) (5, -8.11704695224761962891e-02) (6, -7.22151279449462890625e-01) (7, 2.36877100542187690735e-03) (8, -5.93589991331100463867e-02) (9, -1.49396359920501708984e-01) (10, -2.87047296762466430664e-01) (11, 5.15001825988292694092e-02) (12, -5.14177680015563964844e-01) (13, 1.46954163908958435059e-01) (14, 3.14270913600921630859e-01) (15, 2.55446314811706542969e-01) (16, 3.38055610656738281250e-01) (17, -1.11257635056972503662e-01) (18, 3.15708428621292114258e-01) (19, 1.27447736263275146484e+00) (20, 1.09774386882781982422e+00) (21, -4.54852953553199768066e-02) (22, 1.09866395592689514160e-01) (23, 5.60513772070407867432e-02) (24, 7.21394717693328857422e-02) (25, -1.99924353510141372681e-02) (0, -8.66534590721130371094e-01) (1, -1.92518234252929687500e-01) (2, -1.05830085277557373047e+00) (3, -9.09242451190948486328e-01) (4, 2.01544570922851562500e+00) (5, 2.09934651851654052734e-01) (6, -1.59614062309265136719e+00) (7, -9.15610492229461669922e-01) (8, 9.69540834426879882812e-01) (9, 2.58607673645019531250e+00) (10, -1.12432456016540527344e+00) (11, 2.43513837456703186035e-01) (12, -2.13843464851379394531e+00) (13, -8.28815460205078125000e-01) (14, -5.88283002376556396484e-01) (15, -5.98362982273101806641e-01) (16, -2.92467474937438964844e-01) (17, 2.22549781203269958496e-01) (18, 6.42780125141143798828e-01) (19, -2.51802176237106323242e-01) (20, 5.40726967155933380127e-02) (21, 2.79050357639789581299e-02) (22, 9.80475187301635742188e-01) (23, 1.27087330818176269531e+00) (24, 2.90200293064117431641e-01) (25, -9.98821184039115905762e-02) (0, -4.81831133365631103516e-01) (1, 1.25537276268005371094e-01) (2, -3.44601608812808990479e-02) (3, 9.62621808052062988281e-01) (4, -1.64489910006523132324e-01) (5, 3.10826492309570312500e+00) (6, 3.02858650684356689453e-01) (7, 5.64664721488952636719e-01) (8, -3.91743540763854980469e-01) (9, -1.41327834129333496094e+00) (10, 2.43028059601783752441e-01) (11, -1.14818859100341796875e+00) (12, -2.20273271203041076660e-01) (13, -2.00703114271163940430e-01) (14, 6.87319934368133544922e-01) (15, 6.42633497714996337891e-01) (16, 7.47591376304626464844e-01) (17, 5.00795602798461914062e-01) (18, 3.89870584011077880859e-01) (19, 8.29350531101226806641e-01) (20, -3.00569683313369750977e-01) (21, -2.62058377265930175781e-01) (22, 2.11820796132087707520e-01) (23, 3.51858474314212799072e-02) (24, 1.17648427840322256088e-03) (25, -3.94398748874664306641e-01) (0, -7.37124562263488769531e-01) (1, 8.24037313461303710938e-01) (2, -2.63246107101440429688e+00) (3, 9.97679650783538818359e-01) (4, 1.60649633407592773438e+00) (5, -5.27161955833435058594e-01) (6, -1.22518622875213623047e+00) (7, 1.50000000000000000000e+03) (8, 9.25714433193206787109e-01) (9, 1.27140939235687255859e+00) (10, -4.60590332746505737305e-01) (11, 3.73993426561355590820e-01) (12, -7.77243912220001220703e-01) (13, 3.93533200025558471680e-01) (14, 5.56578516960144042969e-01) (15, 9.36203598976135253906e-01) (16, 4.85785067081451416016e-01) (17, 9.82764303684234619141e-01) (18, 6.35832369327545166016e-01) (19, 4.78063702583312988281e-01) (20, -1.62582844495773315430e-01) (21, 2.00751543045043945312e+00) (22, 5.54743528366088867188e-01) (23, -5.32547771930694580078e-01) (24, -1.11452484130859375000e+00) (25, 2.78035342693328857422e-01) (0, 2.08769512176513671875e+00) (1, -2.97002077102661132812e-01) (2, 2.93834358453750610352e-01) (3, 9.18139219284057617188e-01) (4, -5.04587888717651367188e-01) (5, -1.67152836918830871582e-01) (6, -3.66052910685539245605e-02) (7, -9.95017230510711669922e-01) (8, -1.18607270717620849609e+00) (9, 4.09970521926879882812e-01) (10, -9.28116202354431152344e-01) (11, 9.77069795131683349609e-01) (12, 7.10608586668968200684e-02) (13, -6.70474588871002197266e-01) (14, 5.10733664035797119141e-01) (15, 3.74348998069763183594e-01) (16, 9.72704231739044189453e-01) (17, 7.88447082042694091797e-01) (18, -2.18259453773498535156e+00) (19, -9.64288532733917236328e-01) (20, 1.03879284858703613281e+00) (21, -8.41304063796997070312e-02) (22, 2.25809454917907714844e-01) (23, -3.56266111135482788086e-01) (24, 1.83418706059455871582e-01) (25, 4.82717156410217285156e-01) (0, 6.48316070437431335449e-02) (1, 2.12380707263946533203e-01) (2, -1.08373552560806274414e-01) (3, 2.15148404240608215332e-01) (4, -6.65311515331268310547e-02) (5, -1.61188259720802307129e-01) (6, -9.36555713415145874023e-02) (7, 1.05623170733451843262e-01) (8, 6.87925159931182861328e-01) (9, -4.47271645069122314453e-01) (10, -2.94995665550231933594e+00) (11, 4.74642723798751831055e-01) (12, 5.12769758701324462891e-01) (13, 3.76484602689743041992e-01) (14, 3.62156450748443603516e-01) (15, -8.15325021743774414062e-01) (16, 1.03866178542375564575e-02) (17, 6.43994435667991638184e-02) (18, 6.48084223270416259766e-01) (19, -2.03012704849243164062e-01) (20, -9.39974606037139892578e-01) (21, 1.96337312459945678711e-01) (22, 1.30089074373245239258e-01) (23, 2.52414315938949584961e-01) (24, 1.74392610788345336914e-02) (25, 2.02570259571075439453e-01) (0, 1.50000000000000000000e+03) (1, 6.33850955963134765625e+00) (2, 4.42226982116699218750e+00) (3, -5.27748279273509979248e-02) (4, -4.14128398895263671875e+00) (5, -6.28447711467742919922e-01) (6, 2.22855377197265625000e+00) (7, -3.20556372404098510742e-01) (8, -7.15375483036041259766e-01) (9, -4.24287080764770507812e-01) (10, -4.56796407699584960938e-01) (11, -4.33162033557891845703e-01) (12, 1.30598782561719417572e-03) (13, -1.24752128124237060547e+00) (14, -3.79319489002227783203e-02) (15, -9.64319467544555664062e-01) (16, 1.27977728843688964844e-01) (17, -1.83339655399322509766e-01) (18, 1.30742549896240234375e-01) (19, -1.23543906211853027344e+00) (20, 9.62583646178245544434e-02) (21, 5.52303083240985870361e-02) (22, 9.20327246189117431641e-01) (23, 6.84100687503814697266e-01) (24, 2.20160990953445434570e-01) (25, 3.61260324716567993164e-01) (0, 6.42620384693145751953e-01) (1, 5.79610705375671386719e-01) (2, -5.16431450843811035156e-01) (3, -6.69152736663818359375e-01) (4, -3.88121902942657470703e-01) (5, -3.93378555774688720703e-01) (6, 5.82021176815032958984e-01) (7, 1.34930133819580078125e-01) (8, 2.90177389979362487793e-02) (9, 4.55793768167495727539e-01) (10, 5.60315966606140136719e-01) (11, -2.41354256868362426758e-01) (12, -9.65511575341224670410e-02) (13, -1.61033734679222106934e-01) (14, -4.08135950565338134766e-01) (15, 3.33167910575866699219e-01) (16, -3.77829074859619140625e-01) (17, -2.34035328030586242676e-01) (18, -4.05969887971878051758e-01) (19, 8.56220364570617675781e-01) (20, -2.77736186981201171875e-01) (21, -2.20108836889266967773e-01) (22, -4.28305268287658691406e-01) (23, -4.28666263818740844727e-01) (24, 5.75643002986907958984e-01) (25, -2.79782354831695556641e-01) (0, -2.18343753367662429810e-02) (1, -3.28761845827102661133e-01) (2, 9.39085781574249267578e-01) (3, -2.59239554405212402344e-01) (4, -5.24807572364807128906e-01) (5, -3.02038431167602539062e-01) (6, 1.24093286693096160889e-01) (7, -5.12720644474029541016e-01) (8, 2.85935699939727783203e-01) (9, 1.10663965344429016113e-01) (10, 1.15043365955352783203e+00) (11, -3.82233142852783203125e-01) (12, 1.32706403732299804688e-01) (13, -3.24780493974685668945e-01) (14, 5.96422851085662841797e-01) (15, -4.65950775146484375000e+00) (16, 2.73321837186813354492e-01) (17, -3.24010103940963745117e-01) (18, -4.13905769586563110352e-01) (19, 6.62849128246307373047e-01) (20, 8.98835718631744384766e-01) (21, 3.85585844516754150391e-01) (22, -7.27566108107566833496e-02) (23, -2.48473823070526123047e-01) (24, 2.30615869164466857910e-01) (25, -2.67776906490325927734e-01) (0, -6.49966225028038024902e-02) (1, 6.47770881652832031250e+00) (2, -2.37087234854698181152e-01) (3, -5.12650966644287109375e-01) (4, -7.78485953807830810547e-01) (5, 2.87554874420166015625e+01) (6, 6.10586643218994140625e-01) (7, 3.49829816818237304688e+00) (8, 8.39920878410339355469e-01) (9, -5.99501073360443115234e-01) (10, 9.55698907375335693359e-01) (11, 8.78855764865875244141e-01) (12, 1.09258377552032470703e+00) (13, -5.14336407184600830078e-01) (14, 2.49090433120727539062e-01) (15, 8.49346935749053955078e-01) (16, 4.97366815805435180664e-01) (17, -2.33065448701381683350e-02) (18, 5.04313766956329345703e-01) (19, 4.59690451622009277344e-01) (20, 9.85041558742523193359e-01) (21, -9.02307450771331787109e-01) (22, -4.88412678241729736328e-01) (23, -2.27311924099922180176e-01) (24, -1.26200246810913085938e+00) (25, 8.28555405139923095703e-01) (0, 6.12171530723571777344e-01) (1, 9.26696211099624633789e-02) (2, -3.62287759780883789062e-01) (3, -7.23017215728759765625e-01) (4, -7.68100857734680175781e-01) (5, 3.46198901534080505371e-02) (6, 1.53263950347900390625e+00) (7, 7.89208784699440002441e-02) (8, -1.01455700397491455078e+00) (9, -2.83360421657562255859e-01) (10, 3.14014442265033721924e-02) (11, -3.31766515970230102539e-01) (12, 7.13451981544494628906e-01) (13, -1.84359025955200195312e+00) (14, -2.46152186393737792969e+00) (15, 1.30847179889678955078e+00) (16, -6.07184708118438720703e-01) (17, 1.40032514929771423340e-01) (18, 2.26787939667701721191e-01) (19, 8.76633763313293457031e-01) (20, -2.03956514596939086914e-02) (21, -3.79243969917297363281e-01) (22, 9.15941357612609863281e-01) (23, -5.15565693378448486328e-01) (24, 9.68848645687103271484e-01) (25, 3.84673655033111572266e-01) (0, 6.46604150533676147461e-02) (1, -3.50510507822036743164e-01) (2, -1.76789332181215286255e-02) (3, -1.21912155300378799438e-02) (4, -3.09406399726867675781e-01) (5, -1.54754966497421264648e-01) (6, 5.95774114131927490234e-01) (7, 3.46958152949810028076e-02) (8, 1.80206835269927978516e+00) (9, 4.16575372219085693359e-01) (10, -4.13208931684494018555e-01) (11, -3.94980370998382568359e-01) (12, 2.41033375263214111328e-01) (13, 1.13136880099773406982e-01) (14, 8.18860232830047607422e-01) (15, 6.41183137893676757812e-01) (16, -3.65676254034042358398e-01) (17, 1.90929979085922241211e-01) (18, 7.05980598926544189453e-01) (19, 4.95745897293090820312e-01) (20, 3.33347588777542114258e-01) (21, -4.20821011066436767578e-01) (22, -1.50945717468857765198e-02) (23, 1.74379512667655944824e-01) (24, 3.03267389535903930664e-01) (25, 1.30589276552200317383e-01) (0, -1.11305184662342071533e-01) (1, 1.11723029613494873047e+00) (2, 1.79501846432685852051e-02) (3, 4.40309137105941772461e-01) (4, -2.82764971256256103516e-01) (5, 6.19489073753356933594e-01) (6, 1.53655381873250007629e-02) (7, -1.23355960845947265625e+00) (8, -1.65830627083778381348e-01) (9, 5.50273180007934570312e-01) (10, -6.88042268157005310059e-02) (11, -2.99992322921752929688e-01) (12, 2.01506838202476501465e-02) (13, 1.33536681532859802246e-01) (14, -6.67577326297760009766e-01) (15, -1.84598410129547119141e+00) (16, -7.37237215042114257812e-01) (17, -3.26814353466033935547e-02) (18, -5.11700689792633056641e-01) (19, 1.87277793884277343750e-01) (20, 1.22712120413780212402e-01) (21, -7.25721418857574462891e-01) (22, -3.64267528057098388672e-02) (23, 6.97241723537445068359e-01) (24, 2.45431602001190185547e-01) (25, 1.76575675606727600098e-01) (0, -1.03828680515289306641e+00) (1, -8.15445065498352050781e-01) (2, -8.35661292076110839844e-01) (3, 3.24431014060974121094e+00) (4, 2.48256362915039062500e+02) (5, 9.03999283909797668457e-02) (6, -3.76320183277130126953e-01) (7, 1.39150059223175048828e+00) (8, 9.66760337352752685547e-01) (9, 1.71675121784210205078e+00) (10, -7.40154385566711425781e-01) (11, -4.55420583486557006836e-01) (12, 1.96967050433158874512e-01) (13, 5.22728972136974334717e-02) (14, 1.29872009158134460449e-01) (15, 2.95740395784378051758e-01) (16, -6.16849422454833984375e-01) (17, 5.24249374866485595703e-01) (18, -4.55271333456039428711e-01) (19, 5.89398145675659179688e-01) (20, 3.28699171543121337891e-01) (21, 2.68282815814018249512e-02) (22, 6.52464032173156738281e-01) (23, 8.07253539562225341797e-01) (24, 1.49158513545989990234e+00) (25, 1.89228847622871398926e-01) (0, -1.54471829533576965332e-01) (1, -1.59016680717468261719e+00) (2, 2.82128572463989257812e+00) (3, 1.02954220771789550781e+00) (4, 2.16317579150199890137e-01) (5, 1.21247265625000000000e+03) (6, 3.20891499519348144531e+00) (7, 1.13059711456298828125e+00) (8, -5.91191887855529785156e-01) (9, 5.71895301342010498047e-01) (10, 1.81104272603988647461e-01) (11, 5.15076732635498046875e+00) (12, 4.11226701736450195312e+00) (13, 2.18627929687500000000e+00) (14, -1.78587555885314941406e-01) (15, -1.68215438723564147949e-01) (16, 1.51088520884513854980e-01) (17, 1.98243394494056701660e-01) (18, -5.15077263116836547852e-02) (19, 8.96943137049674987793e-02) (20, 8.29481899738311767578e-01) (21, 2.09526449441909790039e-01) (22, 1.46189165115356445312e+00) (23, 8.16081643104553222656e-01) (24, 8.42784225940704345703e-01) (25, 8.40570211410522460938e-01) (0, 1.32442772388458251953e-01) (1, 1.29193693399429321289e-01) (2, 7.00279891490936279297e-01) (3, -1.78527384996414184570e-02) (4, 6.91975533962249755859e-01) (5, 1.61571398377418518066e-01) (6, 2.52029627561569213867e-01) (7, -2.90103942155838012695e-01) (8, -3.63482415676116943359e-01) (9, -2.78552502393722534180e-01) (10, 2.70523130893707275391e-01) (11, -3.34120184183120727539e-01) (12, -4.36045348644256591797e-01) (13, -3.17920833826065063477e-01) (14, -2.92079985141754150391e-01) (15, 3.74566376209259033203e-01) (16, 2.92375355958938598633e-01) (17, 3.85202884674072265625e-01) (18, -4.32096570730209350586e-01) (19, -3.28451812267303466797e-01) (20, 3.31005990505218505859e-01) (21, 3.01607072353363037109e-01) (22, 5.10764360427856445312e-01) (23, 3.27793066389858722687e-03) (24, 1.71699315309524536133e-01) (25, 3.98610800504684448242e-01) (0, -1.02859340608119964600e-01) (1, -4.88006979227066040039e-01) (2, -2.39262747764587402344e+00) (3, -4.57839441299438476562e+00) (4, 9.00405883789062500000e+01) (5, 1.14862632751464843750e+00) (6, 5.79395115375518798828e-01) (7, 4.77048540115356445312e+00) (8, 2.48291969299316406250e+00) (9, 3.41220211982727050781e+00) (10, 6.00072264671325683594e-01) (11, 1.10116994380950927734e+00) (12, 1.05493092536926269531e+00) (13, -1.16935469210147857666e-01) (14, -5.46013154089450836182e-02) (15, 6.92180204391479492188e+00) (16, -3.00294399261474609375e-01) (17, 8.62805306911468505859e-01) (18, 1.99610710144042968750e-01) (19, 1.34569481015205383301e-01) (20, 1.92960166931152343750e+00) (21, -1.80386185646057128906e-01) (22, 4.92448329925537109375e+00) (23, 5.79390048980712890625e-01) (24, -1.50565220974385738373e-03) (25, 1.53454661369323730469e+00) (0, 7.19452381134033203125e-01) (1, 2.14700818061828613281e-01) (2, -1.43096470832824707031e+00) (3, -6.19169235229492187500e+00) (4, 8.14256381988525390625e+00) (5, -2.20481052994728088379e-01) (6, 7.96684563159942626953e-01) (7, 5.91963171958923339844e-01) (8, -3.22491717338562011719e+00) (9, 5.64438438415527343750e+00) (10, 5.38683831691741943359e-01) (11, 7.79555559158325195312e-01) (12, 5.30321836471557617188e-01) (13, -1.30340158939361572266e-01) (14, 2.23991060256958007812e+00) (15, 3.50552529096603393555e-01) (16, -1.66691929101943969727e-01) (17, 1.11223804950714111328e+00) (18, 2.85586923360824584961e-01) (19, -5.11496365070343017578e-01) (20, 7.15671777725219726562e-01) (21, 1.26658844947814941406e+00) (22, 3.38436782360076904297e-01) (23, 3.54185640811920166016e-01) (24, -4.23889303207397460938e+00) (25, 4.28790785372257232666e-02) (0, -4.10099554061889648438e+00) (1, 2.26468548178672790527e-01) (2, 4.28386121988296508789e-01) (3, -6.33900165557861328125e-01) (4, 1.50000000000000000000e+03) (5, 3.46698999404907226562e-01) (6, -1.77646115422248840332e-01) (7, 3.95866930484771728516e-01) (8, -1.35956987738609313965e-01) (9, -9.80298817157745361328e-01) (10, 1.00804865360260009766e+00) (11, 7.21019983291625976562e-01) (12, 6.69896245002746582031e-01) (13, 5.90090394020080566406e-01) (14, 4.43136006593704223633e-01) (15, 4.24150377511978149414e-01) (16, 4.86346274614334106445e-01) (17, 3.87384407222270965576e-02) (18, 1.79683697223663330078e+00) (19, 7.28085696697235107422e-01) (20, -5.81672228872776031494e-02) (21, 2.62211591005325317383e-01) (22, -1.44106168299913406372e-02) (23, 4.05797809362411499023e-01) (24, 1.55271559953689575195e-01) (25, 5.22291898727416992188e-01) (0, 7.04082787036895751953e-01) (1, 3.66156339645385742188e+00) (2, -1.32525771856307983398e-01) (3, 7.27831602096557617188e-01) (4, 3.65874320268630981445e-01) (5, -6.13399505615234375000e-01) (6, 2.64410614967346191406e+00) (7, -7.11058318614959716797e-01) (8, 2.18308821320533752441e-01) (9, 1.89710363745689392090e-01) (10, 8.32904815673828125000e-01) (11, -7.76599407196044921875e-01) (12, -1.29282444715499877930e-01) (13, -2.15407758951187133789e-01) (14, 4.27109360694885253906e-01) (15, 2.00620308518409729004e-01) (16, -2.39720940589904785156e+00) (17, 3.90912115573883056641e-01) (18, 4.73342150449752807617e-01) (19, 5.00165402889251708984e-01) (20, -1.64260745048522949219e-01) (21, 3.07716220617294311523e-01) (22, 1.22586172074079513550e-02) (23, 1.04411572217941284180e-01) (24, -3.24258518218994140625e+00) (25, -1.10445208847522735596e-01) (0, 8.89011979103088378906e-01) (1, -4.19654488563537597656e-01) (2, 9.95587557554244995117e-02) (3, 2.10520997643470764160e-01) (4, -6.49970397353172302246e-02) (5, -3.47381494939327239990e-02) (6, 7.82188713550567626953e-01) (7, -3.46327155828475952148e-01) (8, 5.42211472988128662109e-01) (9, -1.93229764699935913086e-01) (10, 3.46364676952362060547e-02) (11, -1.97659313678741455078e-01) (12, 2.75429397821426391602e-01) (13, 1.09315848350524902344e+00) (14, 4.74503785371780395508e-01) (15, 1.67802953720092773438e+00) (16, 4.03367251157760620117e-01) (17, -3.33927534520626068115e-02) (18, 1.31629240512847900391e+00) (19, -1.16216838359832763672e+00) (20, 4.95524048805236816406e-01) (21, 7.93482780456542968750e-01) (22, -4.96556133031845092773e-01) (23, 2.73030370473861694336e-01) (24, -4.12132591009140014648e-01) (25, 2.92217046022415161133e-01) (0, 1.22169837355613708496e-01) (1, 3.11017532348632812500e+01) (2, 8.86448621749877929688e-01) (3, 1.08957116699218750000e+03) (4, 5.96459150314331054688e-01) (5, 3.29037457704544067383e-01) (6, 7.43903875350952148438e-01) (7, 6.57260465621948242188e+00) (8, 9.58648800849914550781e-01) (9, 3.22347760200500488281e-01) (10, 1.14854681491851806641e+00) (11, 1.42005097866058349609e+00) (12, 8.43128442764282226562e-01) (13, -5.26706635951995849609e-01) (14, 9.42617118358612060547e-01) (15, -1.28134953975677490234e+00) (16, -3.19908142089843750000e+00) (17, 5.14774084091186523438e-01) (18, 2.32621774077415466309e-01) (19, 1.81533023715019226074e-01) (20, -1.64899194240570068359e+00) (21, -4.22649979591369628906e-01) (22, 5.10486888885498046875e+00) (23, 7.72002983093261718750e+00) (24, 2.43728876113891601562e+00) (25, 2.77274906635284423828e-01) (0, 1.16988658905029296875e-01) (1, -1.04941710829734802246e-01) (2, -5.83878517150878906250e+00) (3, -1.46281765773892402649e-02) (4, -8.89091566205024719238e-02) (5, 1.05741895735263824463e-01) (6, 6.14354163408279418945e-02) (7, -2.20564320683479309082e-01) (8, 2.56005972623825073242e-01) (9, -4.11937683820724487305e-01) (10, 8.96489083766937255859e-01) (11, 1.04660010337829589844e+00) (12, 1.14852404594421386719e+00) (13, -2.85333067178726196289e-01) (14, -4.01964426040649414062e-01) (15, 1.45200937986373901367e-01) (16, 8.40318650007247924805e-02) (17, 6.61481738090515136719e-01) (18, 3.34666222333908081055e-01) (19, -7.72879183292388916016e-01) (20, 8.26267719268798828125e-01) (21, 4.08187836408615112305e-01) (22, -1.52860274538397789001e-02) (23, -6.30069196224212646484e-01) (24, -9.23482596874237060547e-01) (25, 1.54462039470672607422e-01) (0, 9.42392885684967041016e-01) (1, 1.81396588683128356934e-01) (2, 2.17590391635894775391e-01) (3, -2.75795489549636840820e-01) (4, 1.18112698197364807129e-01) (5, 8.38734149932861328125e-01) (6, -5.34776449203491210938e-01) (7, 5.14244675636291503906e-01) (8, -2.10910767316818237305e-01) (9, 7.68100142478942871094e-01) (10, -1.03167569637298583984e+00) (11, 5.79064011573791503906e-01) (12, 2.80484855175018310547e-01) (13, 1.52714097499847412109e+00) (14, -2.59388875961303710938e+00) (15, 9.86411690711975097656e-01) (16, 5.41251659393310546875e-01) (17, 1.65738880634307861328e-01) (18, 6.09405338764190673828e-01) (19, 2.57386398315429687500e+00) (20, -3.47827188670635223389e-02) (21, 3.03357750177383422852e-01) (22, 4.95795100927352905273e-01) (23, 1.28850275650620460510e-02) (24, -5.93305826187133789062e-01) (25, -4.61044795811176300049e-02) (0, 2.64128055423498153687e-02) (1, 2.95519304275512695312e+00) (2, 1.04656970500946044922e+00) (3, 5.96008253097534179688e+00) (4, -9.86370277404785156250e+00) (5, 1.81457436084747314453e+00) (6, 3.40945541858673095703e-01) (7, -3.27613687515258789062e+00) (8, 2.54249982535839080811e-02) (9, 3.52518343925476074219e+00) (10, 3.74480307102203369141e-01) (11, 1.85406267642974853516e+00) (12, 1.17412960529327392578e+00) (13, 1.23443460464477539062e+00) (14, 1.75741314888000488281e+00) (15, 4.29112315177917480469e-01) (16, 1.26416087150573730469e+00) (17, -6.47327184677124023438e-01) (18, 4.25222069025039672852e-01) (19, 1.37339556217193603516e+00) (20, 2.24750824272632598877e-02) (21, -1.61832284927368164062e+00) (22, 3.79961907863616943359e-01) (23, 1.38791903853416442871e-01) (24, -2.44336938858032226562e+00) (25, 1.11408740282058715820e-01) (0, -7.58160173892974853516e-01) (1, 4.01299744844436645508e-01) (2, 4.00758445262908935547e-01) (3, 2.57812350988388061523e-01) (4, -2.08490774035453796387e-01) (5, -5.63037097454071044922e-01) (6, -1.11353850364685058594e+00) (7, -2.45497751235961914062e+00) (8, 1.84570267796516418457e-01) (9, 2.80850470066070556641e-01) (10, -8.96953642368316650391e-02) (11, -1.56636607646942138672e+00) (12, -1.40115380287170410156e+00) (13, -2.40781560540199279785e-01) (14, -3.76354217529296875000e-01) (15, 2.70787668228149414062e+00) (16, -2.57749825716018676758e-01) (17, -1.90600478649139404297e+00) (18, -1.52757334709167480469e+00) (19, -1.67361283302307128906e+00) (20, 6.55092811584472656250e+00) (21, 1.32367193698883056641e+00) (22, 9.18614327907562255859e-01) (23, 1.10717499256134033203e+00) (24, 4.40292388200759887695e-01) (25, 8.13092470169067382812e-01) (0, -3.79233837127685546875e-01) (1, -3.15548539161682128906e+00) (2, 4.38449740409851074219e-01) (3, 2.11924767494201660156e+00) (4, 2.62777805328369140625e-01) (5, 6.63765907287597656250e-01) (6, -2.50219881534576416016e-01) (7, -1.82636427879333496094e+00) (8, -2.52713537216186523438e+00) (9, -2.65502476692199707031e+00) (10, -2.41252565383911132812e+00) (11, -1.05804288387298583984e+00) (12, -8.82926881313323974609e-01) (13, -1.49062141776084899902e-01) (14, -2.25607466697692871094e+00) (15, 5.58293759822845458984e-01) (16, 5.12301206588745117188e-01) (17, -8.71186792850494384766e-01) (18, -2.12285375595092773438e+00) (19, -1.31353664398193359375e+00) (20, 2.53610181808471679688e+00) (21, 2.93202754110097885132e-02) (22, -4.42617505788803100586e-01) (23, -6.33529484272003173828e-01) (24, -7.35200941562652587891e-01) (25, -3.31254228949546813965e-02) (0, 3.65286767482757568359e-02) (1, 1.35257875919342041016e+00) (2, 6.09966754913330078125e-01) (3, 2.74997949600219726562e-01) (4, 2.10040360689163208008e-01) (5, -8.34266543388366699219e-01) (6, 1.57438386231660842896e-02) (7, 9.37315106391906738281e-01) (8, 3.59331294894218444824e-02) (9, -5.01774787902832031250e-01) (10, 1.41593545675277709961e-01) (11, -3.38052928447723388672e-01) (12, -1.58815950155258178711e-01) (13, 1.72692120075225830078e-01) (14, 1.52729547023773193359e+00) (15, -4.26216006278991699219e-01) (16, -2.99298256635665893555e-01) (17, 7.15042173862457275391e-01) (18, 6.70245456695556640625e+00) (19, 2.24306178092956542969e+00) (20, -8.36508721113204956055e-02) (21, -4.14369881153106689453e-01) (22, 1.58343553543090820312e+00) (23, 1.53133356571197509766e+00) (24, 2.09352040290832519531e+00) (25, 3.64543110132217407227e-01) (0, -2.24820271134376525879e-01) (1, -1.54729515314102172852e-01) (2, -2.99255996942520141602e-01) (3, 9.79374125599861145020e-02) (4, -1.87524273991584777832e-01) (5, -5.34989297389984130859e-01) (6, -7.97133982181549072266e-01) (7, -2.15744018554687500000e-01) (8, 6.00956737995147705078e-01) (9, -2.49370276927947998047e-01) (10, 7.12847948074340820312e-01) (11, 3.74835997819900512695e-01) (12, 1.55017241835594177246e-01) (13, 1.07928968966007232666e-01) (14, 3.42425048351287841797e-01) (15, -7.02169656753540039062e-01) (16, 2.11102500557899475098e-01) (17, 1.07824161648750305176e-01) (18, -6.63230478763580322266e-01) (19, 4.50738608837127685547e-01) (20, -4.71961945295333862305e-01) (21, 6.00271642208099365234e-01) (22, 8.98173689842224121094e-01) (23, -1.90123707056045532227e-01) (24, 3.40456396341323852539e-01) (25, 9.35012102127075195312e-02) (0, 4.72384035587310791016e-01) (1, 1.33074843883514404297e+00) (2, -1.68361592292785644531e+00) (3, -1.13734900951385498047e+00) (4, -1.31250214576721191406e+00) (5, -4.59473323822021484375e+00) (6, -1.58532664179801940918e-01) (7, 1.14533638954162597656e+00) (8, -1.50539946556091308594e+00) (9, -1.52800977230072021484e+00) (10, 1.50000000000000000000e+03) (11, -4.11503124237060546875e+00) (12, 5.42229235172271728516e-01) (13, -1.80395364761352539062e+00) (14, -1.51886510848999023438e+00) (15, 1.18172085285186767578e+00) (16, 1.10274398326873779297e+00) (17, -1.78859889507293701172e-01) (18, 6.10058546066284179688e-01) (19, 4.20333832502365112305e-01) (20, 3.86822748184204101562e+00) (21, 4.60349410772323608398e-01) (22, 9.54191327095031738281e-01) (23, 1.19654035568237304688e+00) (24, 1.62578448653221130371e-01) (25, -2.44282633066177368164e-02) (0, 1.44701063632965087891e-01) (1, -3.03615540266036987305e-01) (2, -2.01654899865388870239e-02) (3, -3.63308563828468322754e-02) (4, 4.75729942321777343750e-01) (5, 2.06076312065124511719e+00) (6, 4.27110791206359863281e-01) (7, 6.23389601707458496094e-01) (8, -9.63370129466056823730e-02) (9, 3.32986474037170410156e-01) (10, -4.34427529573440551758e-01) (11, 1.27488291263580322266e+00) (12, 8.41315805912017822266e-01) (13, -2.77820289134979248047e-01) (14, 1.78939715027809143066e-01) (15, -2.24105224013328552246e-01) (16, -1.99376583099365234375e-01) (17, 6.84687316417694091797e-01) (18, -7.07213401794433593750e-01) (19, -1.24021983146667480469e+00) (20, 5.12372314929962158203e-01) (21, -2.38101795315742492676e-01) (22, -4.54517230391502380371e-02) (23, -7.29208409786224365234e-01) (24, -4.73980575799942016602e-01) (25, -2.01463839039206504822e-03) (0, -2.01101255416870117188e+00) (1, 9.51605558395385742188e-01) (2, 7.12125062942504882812e-01) (3, 1.28315150737762451172e+00) (4, 5.73752045631408691406e-01) (5, 6.23228490352630615234e-01) (6, 1.89424622058868408203e+00) (7, -8.78592580556869506836e-02) (8, 1.26945447921752929688e+00) (9, 5.60563325881958007812e-01) (10, 2.76809066534042358398e-01) (11, 3.22744935750961303711e-01) (12, -1.88022479414939880371e-01) (13, 8.62871259450912475586e-02) (14, -1.63280621170997619629e-01) (15, 9.19333648681640625000e+00) (16, 6.00105881690979003906e-01) (17, 5.15921890735626220703e-01) (18, -7.00562357902526855469e-01) (19, -1.04008829593658447266e+00) (20, 6.92331671714782714844e-01) (21, 9.61745679378509521484e-01) (22, -4.76347655057907104492e-01) (23, -7.81307280063629150391e-01) (24, 6.20207190513610839844e-01) (25, 1.13661557435989379883e-01) (0, -4.97173786163330078125e-01) (1, 6.96414113044738769531e-01) (2, 5.53644716739654541016e-01) (3, 1.03835773468017578125e+00) (4, -1.62046402692794799805e-01) (5, 4.99260842800140380859e-01) (6, -2.67114311456680297852e-01) (7, -5.05701303482055664062e-01) (8, -4.38186287879943847656e-01) (9, 7.28626251220703125000e-01) (10, -6.55295491218566894531e-01) (11, 7.85238564014434814453e-01) (12, -4.14056703448295593262e-02) (13, -1.56043931841850280762e-01) (14, -3.22654366493225097656e-01) (15, -3.76165807247161865234e-01) (16, -5.51635921001434326172e-01) (17, 2.45271965861320495605e-01) (18, 9.88640069961547851562e-01) (19, -4.38193511962890625000e+00) (20, -4.44699265062808990479e-02) (21, -1.29894064739346504211e-02) (22, -1.07097454369068145752e-01) (23, 9.38852950930595397949e-02) (24, 2.49126791954040527344e-01) (25, -1.03367520496249198914e-02) (0, 8.35477262735366821289e-02) (1, -8.48471641540527343750e-01) (2, 3.74636203050613403320e-01) (3, 8.67549926042556762695e-02) (4, 3.28840374946594238281e-01) (5, 1.02814778685569763184e-01) (6, -5.37088692188262939453e-01) (7, -9.49322342872619628906e-01) (8, -1.55986100435256958008e-01) (9, 6.30928352475166320801e-02) (10, -1.37467682361602783203e-01) (11, 1.39126861095428466797e+00) (12, 2.20925942063331604004e-01) (13, 2.38757073879241943359e-01) (14, 7.35772907733917236328e-01) (15, -3.49764138460159301758e-01) (16, 1.94266792386770248413e-02) (17, 2.02399730682373046875e-01) (18, 1.87619104981422424316e-01) (19, -1.69416531920433044434e-01) (20, 3.60324978828430175781e-02) (21, 5.40410913527011871338e-02) (22, -5.91435492038726806641e-01) (23, 5.82896247506141662598e-02) (24, -3.18349808454513549805e-01) (25, 1.15936584770679473877e-01) (0, -1.00494813919067382812e+00) (1, -2.15635493397712707520e-01) (2, -1.49374711513519287109e+00) (3, -5.15568673610687255859e-01) (4, -5.98532676696777343750e-01) (5, 7.19445288181304931641e-01) (6, -6.31341695785522460938e-01) (7, 1.74845623970031738281e+00) (8, -8.82392764091491699219e-01) (9, -2.25650882720947265625e+00) (10, 1.58038899302482604980e-01) (11, 1.12777113914489746094e+00) (12, 8.82181450724601745605e-02) (13, -3.83440107107162475586e-01) (14, -2.84890949726104736328e-01) (15, 8.33899438381195068359e-01) (16, -8.47308635711669921875e-02) (17, 1.78667038679122924805e-01) (18, -8.65933001041412353516e-02) (19, 2.34478503465652465820e-01) (20, 1.34185671806335449219e-01) (21, 4.14701414108276367188e+00) (22, -7.20136225223541259766e-01) (23, 3.13167959451675415039e-01) (24, 6.83379948139190673828e-01) (25, 2.97370910644531250000e-01) (0, 1.50000000000000000000e+03) (1, -1.25169408321380615234e+00) (2, -9.81577873229980468750e-01) (3, -5.85375070571899414062e-01) (4, -2.53729492425918579102e-01) (5, 1.95978355407714843750e+01) (6, 9.75915670394897460938e-01) (7, -1.41518390178680419922e+00) (8, -8.14977109432220458984e-01) (9, -8.86460185050964355469e-01) (10, 1.90191432833671569824e-01) (11, 9.34812612831592559814e-03) (12, -8.29307883977890014648e-02) (13, 1.40440478920936584473e-01) (14, -6.01426482200622558594e-01) (15, 3.50791668891906738281e+00) (16, -6.07116603851318359375e+00) (17, -5.54200696945190429688e+00) (18, -2.23337039351463317871e-01) (19, -1.12276323139667510986e-01) (20, -1.50188744068145751953e-01) (21, 2.80489008873701095581e-02) (22, 2.38342553377151489258e-01) (23, 2.33993321657180786133e-01) (24, 4.24121761322021484375e+00) (25, 6.12851642072200775146e-02) (0, 1.02442722320556640625e+01) (1, 7.13048160076141357422e-01) (2, 3.30110043287277221680e-01) (3, -3.91697973012924194336e-01) (4, -7.75668501853942871094e-01) (5, 3.76113861799240112305e-01) (6, 5.92627000808715820312e+00) (7, 1.92585557699203491211e-01) (8, -8.41829359531402587891e-01) (9, -1.82939124107360839844e+00) (10, -1.08022654056549072266e+00) (11, -1.49942457675933837891e+00) (12, 5.88389113545417785645e-02) (13, -2.74275755882263183594e+00) (14, 8.81778320312500000000e+02) (15, -1.03011822700500488281e+00) (16, -2.75564765930175781250e+00) (17, -1.99969744682312011719e+00) (18, 2.25124478340148925781e+00) (19, 5.04845440387725830078e-01) (20, 1.13454079627990722656e+00) (21, 1.19543647766113281250e+00) (22, -8.09467583894729614258e-02) (23, -6.96211159229278564453e-01) (24, -2.50807094573974609375e+00) (25, 2.52545833587646484375e-01) (0, -5.54422557353973388672e-01) (1, 6.43271207809448242188e-01) (2, 8.25967669486999511719e-01) (3, 3.79075817763805389404e-02) (4, -4.25751298666000366211e-01) (5, 1.43919868469238281250e+01) (6, 8.37291931152343750000e+02) (7, 1.60591527819633483887e-02) (8, -1.12962579727172851562e+00) (9, -3.86440545320510864258e-01) (10, 2.97279095649719238281e+00) (11, -1.59243059158325195312e+00) (12, -3.88954579830169677734e-01) (13, -1.65045902132987976074e-01) (14, -1.05904594063758850098e-01) (15, -1.63456514477729797363e-01) (16, -7.12528452277183532715e-02) (17, 3.28309625387191772461e-01) (18, 4.15434122085571289062e-01) (19, -2.19204336404800415039e-01) (20, -1.32398158311843872070e-01) (21, 8.95153999328613281250e-01) (22, 1.02531826496124267578e+00) (23, 5.21118700504302978516e-01) (24, 2.75495231151580810547e-01) (25, 5.10356187820434570312e-01) (0, -1.17687225341796875000e-01) (1, -9.13247168064117431641e-01) (2, -2.52304100990295410156e+00) (3, -1.54828631877899169922e+00) (4, -8.19526910781860351562e-01) (5, 1.20227146148681640625e+00) (6, -6.30449473857879638672e-01) (7, -1.69418811798095703125e+00) (8, -7.66551375389099121094e-01) (9, 4.07838851213455200195e-01) (10, 2.67699408531188964844e+00) (11, 2.24784088134765625000e+00) (12, -1.13124407827854156494e-01) (13, 4.60874259471893310547e-01) (14, 7.29908287525177001953e-01) (15, 1.32201194763183593750e+00) (16, 1.14211273193359375000e+00) (17, 2.38923835754394531250e+00) (18, 1.48624694347381591797e+00) (19, 5.18748939037322998047e-01) (20, 1.33844363689422607422e+00) (21, 1.28795361518859863281e+00) (22, -3.17275613546371459961e-01) (23, 5.26376581192016601562e+00) (24, 1.10426342487335205078e+00) (25, 4.00176882743835449219e-01) (0, 1.22412741184234619141e-01) (1, 3.64447049796581268311e-02) (2, -6.30863532423973083496e-02) (3, -3.21674048900604248047e-01) (4, -3.43707084655761718750e-01) (5, 1.03600239753723144531e+00) (6, 2.69012868404388427734e-01) (7, 1.49252951145172119141e-01) (8, -8.77431221306324005127e-03) (9, 5.54539620876312255859e-01) (10, 2.51207113265991210938e-01) (11, -2.97629147768020629883e-01) (12, 2.92643576860427856445e-01) (13, 4.77662742137908935547e-01) (14, 1.20480048656463623047e+00) (15, 5.58809697628021240234e-01) (16, -4.51523154973983764648e-01) (17, -9.03243850916624069214e-03) (18, -6.83932185173034667969e-01) (19, -7.71589457988739013672e-01) (20, -4.64889764785766601562e-01) (21, -3.92843276262283325195e-01) (22, 1.04662823677062988281e+00) (23, 6.70756459236145019531e-01) (24, -9.28296566009521484375e-01) (25, 1.75440818071365356445e-01) (0, 6.64742410182952880859e-01) (1, 1.69480487704277038574e-01) (2, 1.31002414226531982422e+00) (3, 3.86464297771453857422e-01) (4, -2.49814063310623168945e-01) (5, -1.09534986317157745361e-01) (6, 2.89136379957199096680e-01) (7, -3.77335906028747558594e-01) (8, 4.06999737024307250977e-01) (9, 3.44653517007827758789e-01) (10, 1.17162898182868957520e-01) (11, 6.84733092784881591797e-01) (12, 1.05126547813415527344e+00) (13, 2.51073837280273437500e-01) (14, -3.01152050495147705078e-01) (15, -2.25446283817291259766e-01) (16, 8.47646892070770263672e-02) (17, -2.13718199729919433594e+00) (18, -1.36434927582740783691e-01) (19, -6.94783210754394531250e-01) (20, 1.76347374916076660156e-01) (21, -1.26173377037048339844e-01) (22, 1.59818267822265625000e+00) (23, 1.19266897439956665039e-01) (24, -5.95005273818969726562e-01) (25, 2.11839824914932250977e-01) (0, -1.06026053428649902344e+00) (1, -3.23907279968261718750e+00) (2, -7.71752417087554931641e-01) (3, 1.42893314361572265625e-01) (4, 4.47319060564041137695e-01) (5, -5.88476695120334625244e-02) (6, 3.45441102981567382812e-02) (7, 8.82677078247070312500e+00) (8, 1.08741736412048339844e+00) (9, 6.89732789993286132812e-01) (10, 2.48931914567947387695e-01) (11, 3.62245768308639526367e-01) (12, -3.91800068318843841553e-02) (13, 7.05993592739105224609e-01) (14, -2.24706977605819702148e-02) (15, 6.58688485622406005859e-01) (16, -7.40082323551177978516e-01) (17, 3.11738818883895874023e-01) (18, -3.71093511581420898438e-01) (19, -3.22535783052444458008e-01) (20, 1.71059381961822509766e+00) (21, 4.78037260472774505615e-02) (22, 4.00169976055622100830e-02) (23, -6.35309278964996337891e-01) (24, -1.17495320737361907959e-01) (25, -3.67822451516985893250e-03) (0, 4.08505171537399291992e-01) (1, -7.60272502899169921875e-01) (2, -6.81858062744140625000e-01) (3, 5.29160559177398681641e-01) (4, -9.73730623722076416016e-01) (5, 3.41041207313537597656e-01) (6, -3.22491645812988281250e-01) (7, -4.05651658773422241211e-01) (8, 3.06698143482208251953e-01) (9, 1.15129604935646057129e-01) (10, 7.46208608150482177734e-01) (11, 3.45895916223526000977e-01) (12, -9.61739644408226013184e-02) (13, 5.67581169307231903076e-02) (14, -2.09261566400527954102e-01) (15, -4.30942344665527343750e+00) (16, 8.18733990192413330078e-01) (17, 6.54617846012115478516e-02) (18, -4.56330291926860809326e-02) (19, 5.52629590034484863281e-01) (20, 3.19025099277496337891e-01) (21, -1.06169544160366058350e-02) (22, 1.13594546914100646973e-01) (23, 2.70312041044235229492e-01) (24, -8.77782583236694335938e-01) (25, 3.35662178695201873779e-02) (0, -4.93007063865661621094e-01) (1, -1.27440452575683593750e-01) (2, 6.12844645977020263672e-01) (3, -4.09418910741806030273e-01) (4, -5.29103934764862060547e-01) (5, -2.40716755390167236328e-01) (6, -1.53101295232772827148e-01) (7, -4.26264822483062744141e-01) (8, 3.33630621433258056641e-01) (9, 2.45986700057983398438e-01) (10, 1.14112116396427154541e-01) (11, 1.80205479264259338379e-01) (12, 3.32202821969985961914e-01) (13, 2.03027650713920593262e-01) (14, 4.23150986433029174805e-01) (15, 7.23030567169189453125e-01) (16, 9.88354980945587158203e-02) (17, -1.70628484338521957397e-02) (18, 4.89956200122833251953e-01) (19, 3.10014307498931884766e-01) (20, -4.61211025714874267578e-01) (21, 4.02492284774780273438e-01) (22, 6.96523115038871765137e-02) (23, 5.24130761623382568359e-01) (24, -5.26250267028808593750e+00) (25, -1.51880741119384765625e-01) (0, -5.35413563251495361328e-01) (1, -7.72469460964202880859e-01) (2, -1.21858704090118408203e+00) (3, -3.40209633111953735352e-01) (4, -4.80810731649398803711e-01) (5, 6.71657025814056396484e-01) (6, -1.86168830841779708862e-02) (7, -1.11960697174072265625e+00) (8, -8.22682380676269531250e-01) (9, -2.39447262138128280640e-02) (10, 2.13360714912414550781e+00) (11, 6.78500175476074218750e-01) (12, -3.95694017410278320312e-01) (13, -1.08926510810852050781e+00) (14, 1.37664830684661865234e+00) (15, 1.36279368400573730469e+00) (16, 2.23390936851501464844e+00) (17, 5.37409245967864990234e-01) (18, 1.30536663532257080078e+00) (19, 4.20912533998489379883e-01) (20, 1.38677656650543212891e+00) (21, 2.02328753471374511719e+00) (22, 3.69723677635192871094e+00) (23, 1.83716550469398498535e-01) (24, 4.36362445354461669922e-01) (25, 5.74475601315498352051e-02) (0, 1.67068749666213989258e-01) (1, 6.96357846260070800781e-01) (2, 5.87131023406982421875e-01) (3, 1.68445743620395660400e-02) (4, 2.80392378568649291992e-01) (5, -2.51511991024017333984e-01) (6, 4.32863496243953704834e-02) (7, 5.99795401096343994141e-01) (8, 1.36476859450340270996e-01) (9, 1.04941666126251220703e+00) (10, -2.94408857822418212891e-01) (11, -1.85285195708274841309e-01) (12, -1.79231584072113037109e-01) (13, 1.18487112224102020264e-01) (14, 7.74033516645431518555e-02) (15, -3.60372185707092285156e-01) (16, -1.72150135040283203125e-01) (17, -2.74466753005981445312e-01) (18, -4.25530076026916503906e-01) (19, -2.59042471647262573242e-01) (20, -2.85017728805541992188e-01) (21, -1.58375531435012817383e-01) (22, -1.89820438623428344727e-01) (23, -2.53872871398925781250e-01) (24, 6.25592246651649475098e-02) (25, -4.01675939559936523438e-01) (0, 2.99696981906890869141e-01) (1, 4.37077134847640991211e-01) (2, -3.71276199817657470703e-01) (3, 5.26992976665496826172e-01) (4, -2.14146152138710021973e-01) (5, -1.96520909667015075684e-01) (6, 6.33072495460510253906e-01) (7, -1.72970330715179443359e+00) (8, -6.67483150959014892578e-01) (9, 5.98747208714485168457e-02) (10, 5.73187649250030517578e-01) (11, -3.19339595735073089600e-02) (12, -8.48581120371818542480e-02) (13, -3.31874847412109375000e-01) (14, -7.98475682735443115234e-01) (15, 2.81787693500518798828e-01) (16, 4.80893135070800781250e-01) (17, -3.66155833005905151367e-01) (18, -2.98122733831405639648e-01) (19, -3.50687474012374877930e-01) (20, -7.24526584148406982422e-01) (21, 4.34202104806900024414e-01) (22, -3.77812206745147705078e-01) (23, -4.41678434610366821289e-01) (24, 6.57655775547027587891e-01) (25, -4.14653480052947998047e-01) (0, 5.42725920677185058594e-01) (1, -1.90288591384887695312e+00) (2, -1.16250133514404296875e+00) (3, -1.97625207901000976562e+00) (4, 1.84046804904937744141e+00) (5, 1.23261642456054687500e+00) (6, -4.21015143394470214844e-01) (7, 5.18537402153015136719e-01) (8, 4.92639255523681640625e+00) (9, 9.50738340616226196289e-02) (10, 4.23284471035003662109e-01) (11, 2.66301703453063964844e+00) (12, 1.13403844833374023438e+00) (13, -1.15322792530059814453e+00) (14, 1.52059888839721679688e+01) (15, 8.02666854858398437500e+00) (16, -1.32762348651885986328e+00) (17, -8.33327531814575195312e-01) (18, -1.64156162738800048828e+00) (19, 1.71373009681701660156e-01) (20, 2.99738585948944091797e-01) (21, 1.57837319374084472656e+00) (22, -1.20269691944122314453e+00) (23, -3.42164576053619384766e-01) (24, 7.44925439357757568359e-01) (25, 5.17091929912567138672e-01) (0, -4.94479465484619140625e+00) (1, 5.34309685230255126953e-01) (2, -1.76422834396362304688e-01) (3, -1.58982068300247192383e-01) (4, 3.37029933929443359375e-01) (5, -4.28317070007324218750e+00) (6, -5.76483058929443359375e+00) (7, 4.75672364234924316406e-01) (8, 4.75425899028778076172e-01) (9, 8.38783800601959228516e-01) (10, 5.43740081787109375000e+00) (11, 3.20684045553207397461e-01) (12, 9.50939714908599853516e-01) (13, 2.26488065719604492188e+00) (14, 5.02390623092651367188e-01) (15, 3.79458785057067871094e+00) (16, 6.21891498565673828125e-01) (17, 8.60526502132415771484e-01) (18, 1.02913081645965576172e+00) (19, 4.15147870779037475586e-01) (20, -4.80634117126464843750e+00) (21, 4.48763221502304077148e-01) (22, 4.26826119422912597656e-01) (23, 1.31082570552825927734e+00) (24, 2.72630190849304199219e+00) (25, 5.86741745471954345703e-01) (0, 2.53466534614562988281e+00) (1, 5.01814174652099609375e+00) (2, 2.48159587383270263672e-01) (3, 8.09723496437072753906e-01) (4, 4.55400991439819335938e+00) (5, 7.01342165470123291016e-01) (6, 1.16206097602844238281e+00) (7, 9.96938228607177734375e-01) (8, 1.15940475463867187500e+00) (9, 2.01760482788085937500e+00) (10, -2.62054562568664550781e-01) (11, -2.51340001821517944336e-01) (12, -9.19560253620147705078e-01) (13, 1.68085336685180664062e-01) (14, -2.03494012355804443359e-01) (15, -1.77694284915924072266e+00) (16, 3.20824563503265380859e-01) (17, -3.16652268171310424805e-01) (18, 1.06391286849975585938e+00) (19, -2.90269792079925537109e-01) (20, -6.21933221817016601562e-01) (21, -9.81170535087585449219e-01) (22, 3.20823997259140014648e-01) (23, 5.57742059230804443359e-01) (24, -6.65066614747047424316e-02) (25, 4.88685637712478637695e-01) (0, 1.88204979896545410156e+00) (1, 5.92614829540252685547e-01) (2, 3.52003902196884155273e-01) (3, -5.80040097236633300781e-01) (4, -2.61702626943588256836e-01) (5, 4.65437263250350952148e-01) (6, -1.88594901561737060547e+00) (7, -6.36133134365081787109e-01) (8, 7.69860222935676574707e-02) (9, 3.57530474662780761719e-01) (10, -6.03240966796875000000e-01) (11, -1.65702939033508300781e-01) (12, 6.44512400031089782715e-02) (13, 1.07885383069515228271e-01) (14, -1.77148565649986267090e-01) (15, 2.64462530612945556641e-01) (16, 1.58070042729377746582e-01) (17, -8.64021420478820800781e-01) (18, 5.40234372019767761230e-02) (19, -4.53995227813720703125e-01) (20, -2.95699268579483032227e-01) (21, 8.54712188243865966797e-01) (22, 1.27626687288284301758e-01) (23, 1.42466396093368530273e-01) (24, 4.79230046272277832031e-01) (25, 1.21529221534729003906e-01) (0, 8.58773171901702880859e-01) (1, -4.95862811803817749023e-02) (2, 1.92455494403839111328e+00) (3, 1.49733230471611022949e-01) (4, 1.40802096575498580933e-02) (5, 1.28837287425994873047e-01) (6, 4.08289492130279541016e-01) (7, -1.14810079336166381836e-01) (8, 1.01619398593902587891e+00) (9, -3.43164145946502685547e-01) (10, 6.75724089145660400391e-01) (11, 3.67953568696975708008e-01) (12, -2.50861316919326782227e-01) (13, -5.58921396732330322266e-01) (14, -2.51733213663101196289e-01) (15, 2.42251083254814147949e-01) (16, 3.79197150468826293945e-01) (17, 2.53451704978942871094e-01) (18, 2.76207804679870605469e-01) (19, -1.43169879913330078125e-01) (20, 4.39482688903808593750e-01) (21, -3.45117479562759399414e-01) (22, -3.13842058181762695312e-01) (23, -2.82961487770080566406e-01) (24, -2.97243326902389526367e-01) (25, -2.45520517230033874512e-01) (0, 1.58588200807571411133e-01) (1, 7.60677307844161987305e-02) (2, 5.59683740139007568359e-02) (3, -4.30260658264160156250e-01) (4, -2.22679480910301208496e-01) (5, 2.88252919912338256836e-01) (6, 6.35754317045211791992e-02) (7, 2.14168116450309753418e-01) (8, 1.02363370358943939209e-01) (9, -3.16939234733581542969e-01) (10, -1.80282190442085266113e-01) (11, 5.11311769485473632812e-01) (12, 3.87597858905792236328e-01) (13, -3.90595972537994384766e-01) (14, -3.98102372884750366211e-01) (15, 4.68337148427963256836e-01) (16, 2.73248136043548583984e-01) (17, 4.08760935068130493164e-01) (18, -3.32357317209243774414e-01) (19, -1.49361476302146911621e-01) (20, 6.02487862110137939453e-01) (21, -3.20783734321594238281e-01) (22, 4.97231602668762207031e-01) (23, 6.76103591918945312500e-01) (24, -3.13761144876480102539e-01) (25, 3.50343048572540283203e-01) (0, -3.44618290662765502930e-01) (1, 6.50698244571685791016e-01) (2, -8.95684540271759033203e-01) (3, -1.43651449680328369141e+00) (4, -1.29647624492645263672e+00) (5, -5.66204488277435302734e-01) (6, 4.09761339426040649414e-01) (7, 1.72925066947937011719e+00) (8, 1.62955477833747863770e-01) (9, -3.03091049194335937500e-01) (10, -3.90342861413955688477e-01) (11, 1.19642055034637451172e+00) (12, 3.43882381916046142578e-01) (13, 2.34149050712585449219e+00) (14, 3.85811352729797363281e+00) (15, 7.58851230144500732422e-01) (16, -8.02133619785308837891e-01) (17, 6.40232920646667480469e-01) (18, 6.98713302612304687500e-01) (19, 1.22436869144439697266e+00) (20, -3.50463747978210449219e-01) (21, 5.85753142833709716797e-01) (22, 3.74476343393325805664e-01) (23, 9.75608646869659423828e-01) (24, 5.35587930679321289062e+00) (25, 5.14410018920898437500e-01) (0, 6.19790434837341308594e-01) (1, 5.68868577480316162109e-01) (2, -2.77646839618682861328e-01) (3, 6.88824474811553955078e-01) (4, 1.28867781162261962891e+00) (5, 2.96008735895156860352e-01) (6, -2.00872063636779785156e-01) (7, -1.94988489151000976562e-01) (8, 2.16185748577117919922e-01) (9, -4.32930082082748413086e-01) (10, -2.82829999923706054688e-01) (11, -1.76669463515281677246e-01) (12, -3.82095605134963989258e-01) (13, 2.02593356370925903320e-01) (14, 1.22682370245456695557e-01) (15, -3.94552081823348999023e-01) (16, -1.21442981064319610596e-01) (17, -2.04231478273868560791e-02) (18, -2.95910388231277465820e-01) (19, 6.06634467840194702148e-02) (20, 3.60610008239746093750e-01) (21, -1.05087183415889739990e-01) (22, -4.01877075433731079102e-01) (23, 1.30797892808914184570e-01) (24, 6.53658434748649597168e-02) (25, -3.04234355688095092773e-01) (0, -3.95891100168228149414e-01) (1, 9.41598713397979736328e-01) (2, 1.65555548667907714844e+00) (3, 2.15040016174316406250e+00) (4, -5.95051025390625000000e+02) (5, -6.76051855087280273438e-01) (6, -2.31562837958335876465e-01) (7, 8.35767626762390136719e-01) (8, 2.80815720558166503906e+00) (9, -5.30869913101196289062e+00) (10, -2.68211692571640014648e-01) (11, -4.17396724224090576172e-01) (12, -7.81919300556182861328e-01) (13, -9.18691083788871765137e-02) (14, -3.11640173196792602539e-01) (15, 9.21341955661773681641e-01) (16, -3.03042978048324584961e-01) (17, -3.08057968504726886749e-03) (18, 2.23111078143119812012e-01) (19, 1.07416175305843353271e-01) (20, -6.37876570224761962891e-01) (21, 4.61633831262588500977e-01) (22, 2.49765187501907348633e-01) (23, 1.41898143291473388672e+00) (24, -5.91859459877014160156e-01) (25, 4.08722534775733947754e-02) (0, 2.95476746559143066406e+00) (1, -7.33302474021911621094e-01) (2, -5.05099773406982421875e-01) (3, 1.07900714874267578125e+01) (4, 2.48976334929466247559e-01) (5, -5.14480769634246826172e-01) (6, 3.10093164443969726562e-01) (7, -4.01644468307495117188e-01) (8, -1.13963830471038818359e+00) (9, -3.19513350725173950195e-01) (10, -3.39706689119338989258e-01) (11, -7.79380679130554199219e-01) (12, 1.17580294609069824219e+00) (13, 6.42125725746154785156e-01) (14, 1.26389920711517333984e+00) (15, 1.98699340820312500000e+01) (16, 1.11411893367767333984e+00) (17, 1.24102270603179931641e+00) (18, 5.63040733337402343750e-01) (19, -4.64275598526000976562e-01) (20, 8.55754554271697998047e-01) (21, 6.99041068553924560547e-01) (22, 1.20066154003143310547e+00) (23, 6.26749619841575622559e-02) (24, -1.97167232632637023926e-01) (25, 5.08646011352539062500e-01) (0, 1.69902499765157699585e-02) (1, 6.29685878753662109375e-01) (2, -8.29803168773651123047e-01) (3, 6.85427188873291015625e-02) (4, 3.53385239839553833008e-01) (5, -1.00623540580272674561e-01) (6, 1.59774169325828552246e-01) (7, -4.68027234077453613281e-01) (8, -4.72113102674484252930e-01) (9, -1.46736308932304382324e-01) (10, 1.15533873438835144043e-01) (11, -1.80708289146423339844e-01) (12, -3.45715492963790893555e-01) (13, -2.78293520212173461914e-01) (14, -4.23234671354293823242e-01) (15, -3.62427890300750732422e-01) (16, -3.35284560918807983398e-01) (17, -2.35404416918754577637e-01) (18, -3.45827728509902954102e-01) (19, -1.40695202350616455078e+00) (20, -2.92842835187911987305e-01) (21, -2.34442695975303649902e-01) (22, -3.42526823282241821289e-01) (23, -3.27820181846618652344e-01) (24, 1.97279393672943115234e-01) (25, -3.78837615251541137695e-01) (26, 3.69443655014038085938e-01) (27, 1.90736591815948486328e-01) (28, -4.17701974511146545410e-02) (29, 2.71676890552043914795e-02) (30, 1.24121107161045074463e-01) (31, 6.80994391441345214844e-01) (32, -3.78488451242446899414e-01) (33, 3.92606317996978759766e-01) (34, -1.63242101669311523438e-01) (35, -3.73398423194885253906e-01) (36, 4.03387427330017089844e-01) (37, -2.31170684099197387695e-01) (38, -1.92769423127174377441e-01) (39, 1.60679757595062255859e-01) (40, 6.75347745418548583984e-02) (41, -1.56500175595283508301e-01) (42, 1.63829937577247619629e-01) (43, 4.26260024309158325195e-01) (44, 1.23747691512107849121e-01) (45, 6.83000385761260986328e-01) (46, 2.75828763842582702637e-02) (47, -1.36621549725532531738e-01) (48, 4.79595996439456939697e-02) (49, 6.26821696758270263672e-01) (50, -4.32783842086791992188e-01) (51, -1.66977733373641967773e-01) (52, -1.47742062807083129883e-01) (53, 3.37300240993499755859e-01) (54, -1.53507068753242492676e-01) (55, 5.64551465213298797607e-02) (56, -3.13625127077102661133e-01) (57, -3.94632713869214057922e-03) (58, 4.51453506946563720703e-01) (59, -9.31395441293716430664e-02) (60, 1.89830839633941650391e-01) (61, 5.56199014186859130859e-01) (62, -7.16948211193084716797e-02) (63, -1.58928349614143371582e-01) (64, -1.09763845801353454590e-01) (65, 4.07593458890914916992e-01) (66, 6.24383866786956787109e-01) (67, 1.53537943959236145020e-01) (68, 1.68296471238136291504e-01) (69, -4.49472159147262573242e-01) (70, -1.80794015526771545410e-01) (71, 3.70708972215652465820e-01) (72, 2.03219242393970489502e-02) (73, 3.77176672220230102539e-01) (74, 6.84896036982536315918e-02) (75, -2.05294564366340637207e-01) (76, -4.23351600766181945801e-02) (77, 4.26508545875549316406e-01) (78, -1.44113287329673767090e-01) (79, 8.89100357890129089355e-02) (80, 4.43598359823226928711e-01) (81, 2.94232703745365142822e-02) (82, -2.80641783028841018677e-02) (83, 5.89661896228790283203e-01) (84, 3.35405260324478149414e-01) (85, 1.32799763232469558716e-02) (86, -5.47263063490390777588e-02) (87, 1.35531648993492126465e-02) (88, 2.24754333496093750000e-01) (89, 6.90670311450958251953e-01) (90, 3.58302235603332519531e-01) (91, -1.27944856882095336914e-01) (92, 7.50881254673004150391e-01) (93, -1.43673971295356750488e-01) (94, 3.55244427919387817383e-01) (95, 5.84133982658386230469e-01) (96, 4.22792613506317138672e-01) (26, 4.23723429441452026367e-01) (27, -2.30335608124732971191e-01) (28, 1.30180656909942626953e-01) (29, -5.24362362921237945557e-02) (30, 4.83499377965927124023e-01) (31, 5.41075646877288818359e-01) (32, 3.03185611963272094727e-01) (33, 2.67549723386764526367e-01) (34, -1.06119653210043907166e-02) (35, -2.03082710504531860352e-01) (36, 3.77009660005569458008e-01) (37, -1.89207628369331359863e-01) (38, 8.02160322666168212891e-01) (39, -1.39847129583358764648e-01) (40, -9.56695526838302612305e-02) (41, 1.50043502449989318848e-01) (42, -1.85667365789413452148e-01) (43, 1.65994212031364440918e-01) (44, 6.17615640163421630859e-01) (45, 8.95218133926391601562e-01) (46, -1.89966365694999694824e-01) (47, -1.92349806427955627441e-01) (48, -7.75566175580024719238e-02) (49, 4.38687443733215332031e-01) (50, 4.12626624107360839844e-01) (51, 3.12912106513977050781e-01) (52, -2.86903470754623413086e-01) (53, 4.57491010427474975586e-01) (54, -1.27300340682268142700e-02) (55, 9.49789062142372131348e-02) (56, 7.02844560146331787109e-01) (57, 1.42435997724533081055e-01) (58, -2.24916413426399230957e-01) (59, -8.14039856195449829102e-02) (60, 4.08069044351577758789e-01) (61, 2.20798432826995849609e-01) (62, 2.75032639503479003906e-01) (63, -1.94258019328117370605e-01) (64, -4.54169996082782745361e-02) (65, 2.08124130964279174805e-01) (66, 1.59857034683227539062e-01) (67, 8.49509239196777343750e-02) (68, 5.38427848368883132935e-03) (69, 3.90072073787450790405e-03) (70, 2.09564827382564544678e-02) (71, -4.37984079122543334961e-01) (72, 2.20317721366882324219e-01) (73, -1.02955885231494903564e-01) (74, 2.73877289146184921265e-02) (75, -2.26543754339218139648e-01) (76, -8.13188254833221435547e-02) (77, 4.69119668006896972656e-01) (78, -1.29511326551437377930e-01) (79, -7.94195849448442459106e-03) (80, -3.18646460771560668945e-01) (81, -5.50782401114702224731e-03) (82, -6.12590238451957702637e-02) (83, 5.77682197093963623047e-01) (84, 4.64841663837432861328e-01) (85, -1.47104308009147644043e-01) (86, -8.25428590178489685059e-02) (87, -4.42889899015426635742e-01) (88, 7.34184324741363525391e-01) (89, 7.09503144025802612305e-02) (90, 2.62093812227249145508e-01) (91, -2.51621991395950317383e-01) (92, 8.57287228107452392578e-01) (93, 8.65825638175010681152e-02) (94, -1.51965796947479248047e-01) (95, 6.85635805130004882812e-01) (96, 3.71671080589294433594e-01) (26, 3.71745049953460693359e-01) (27, -3.45391958951950073242e-01) (28, 1.27341315150260925293e-01) (29, -1.46273180842399597168e-01) (30, -3.62232536077499389648e-01) (31, 6.94016456604003906250e-01) (32, 4.17183399200439453125e-01) (33, 2.19303235411643981934e-01) (34, -1.43004700541496276855e-01) (35, -3.28548163175582885742e-01) (36, 4.04835432767868041992e-01) (37, 3.03952813148498535156e-01) (38, -5.17752945423126220703e-01) (39, 1.40691369771957397461e-01) (40, -1.90469354391098022461e-01) (41, -7.24626183509826660156e-02) (42, -5.16739413142204284668e-02) (43, -2.80504345893859863281e-01) (44, 6.08957886695861816406e-01) (45, 4.78913784027099609375e-01) (46, 6.56527698040008544922e-01) (47, -1.57302737236022949219e-01) (48, -8.45245551317930221558e-03) (49, 2.41881772875785827637e-01) (50, -2.52262115478515625000e-01) (51, 7.99912035465240478516e-01) (52, -1.70494660735130310059e-01) (53, 9.88592684268951416016e-01) (54, -1.33991643786430358887e-01) (55, 1.30347386002540588379e-01) (56, 3.82723867893218994141e-01) (57, -2.67500448971986770630e-02) (58, -1.16483703255653381348e-01) (59, -2.02556878328323364258e-01) (60, -4.82573539018630981445e-01) (61, 6.92790806293487548828e-01) (62, -7.64655768871307373047e-02) (63, -2.08815768361091613770e-01) (64, -2.58872937411069869995e-02) (65, 2.93785095214843750000e-01) (66, -2.45577599853277206421e-02) (67, -5.02914711833000183105e-02) (68, 1.43650114536285400391e-01) (69, 5.11143058538436889648e-02) (70, 3.66746127605438232422e-01) (71, 5.58228909969329833984e-01) (72, 1.98265135288238525391e-01) (73, 7.66159445047378540039e-02) (74, 2.78029758483171463013e-02) (75, 2.10900321602821350098e-01) (76, -1.65230795741081237793e-01) (77, 2.12054401636123657227e-01) (78, 1.26115292310714721680e-01) (79, -1.95522621273994445801e-01) (80, 1.35880177840590476990e-02) (81, 5.22904932498931884766e-01) (82, -1.57935917377471923828e-01) (83, 6.36831760406494140625e-01) (84, 3.78912426531314849854e-02) (85, -2.08498239517211914062e-01) (86, 7.13553559035062789917e-03) (87, -8.04429709911346435547e-01) (88, 2.87377148866653442383e-01) (89, 1.38016128540039062500e+00) (90, 4.79015082120895385742e-01) (91, -2.40586698055267333984e-01) (92, 5.36786615848541259766e-01) (93, 9.11355614662170410156e-02) (94, -9.45407375693321228027e-02) (95, 5.03182411193847656250e-01) (96, 3.84147852659225463867e-01) (26, 3.83334755897521972656e-01) (27, -9.48807150125503540039e-02) (28, -5.57512566447257995605e-02) (29, 1.74712881445884704590e-01) (30, -7.67376184463500976562e-01) (31, 5.82412838935852050781e-01) (32, 3.91965895891189575195e-01) (33, 4.62364524602890014648e-01) (34, -2.40409433841705322266e-01) (35, -1.31346464157104492188e+00) (36, 3.65796774625778198242e-01) (37, 7.20477581024169921875e-01) (38, 1.51021018624305725098e-01) (39, 1.43022101838141679764e-03) (40, 1.16771805286407470703e+00) (41, 2.38158568739891052246e-01) (42, 3.67566533386707305908e-02) (43, 5.17719388008117675781e-01) (44, 9.10471141338348388672e-01) (45, 6.58292233943939208984e-01) (46, -1.85874074697494506836e-01) (47, -1.43508344888687133789e-01) (48, 3.63268777728080749512e-02) (49, -2.14566841721534729004e-01) (50, 2.83233493566513061523e-01) (51, 1.21632325649261474609e+00) (52, -2.90325224399566650391e-01) (53, 4.67592746019363403320e-01) (54, 3.19710433483123779297e-01) (55, 4.93943020701408386230e-02) (56, -1.92073479294776916504e-01) (57, 7.92000349611043930054e-03) (58, 2.37640365958213806152e-01) (59, -1.29049733281135559082e-01) (60, 3.23874175548553466797e-01) (61, 6.78657507523894309998e-03) (62, -5.63074611127376556396e-02) (63, -1.66871875524520874023e-01) (64, 2.68495172262191772461e-01) (65, 4.04791653156280517578e-01) (66, 7.49543905258178710938e-02) (67, -1.56067699193954467773e-01) (68, -3.97371858358383178711e-01) (69, 4.47593778371810913086e-01) (70, 2.60288327932357788086e-01) (71, 1.06925272941589355469e+00) (72, -1.46397426724433898926e-01) (73, 9.13975611329078674316e-02) (74, -1.03387586772441864014e-01) (75, -1.21690094470977783203e-01) (76, -1.42814412713050842285e-01) (77, 1.04657977819442749023e-01) (78, 3.91671121120452880859e-01) (79, 9.74524319171905517578e-02) (80, 5.98747432231903076172e-01) (81, 3.45539361238479614258e-01) (82, 4.96168434619903564453e-02) (83, 6.73071742057800292969e-01) (84, 8.58789324760437011719e-01) (85, -1.97374328970909118652e-01) (86, 4.27278615534305572510e-02) (87, -6.68385922908782958984e-01) (88, -2.13165655732154846191e-01) (89, 1.04631364345550537109e+00) (90, 3.25489133596420288086e-01) (91, -3.22847068309783935547e-01) (92, 7.77446746826171875000e-01) (93, 5.63533566892147064209e-02) (94, -2.43678286671638488770e-01) (95, 6.45234107971191406250e-01) (96, 3.41544002294540405273e-01) (26, 3.12397092580795288086e-01) (27, 1.72762066125869750977e-01) (28, -1.56595148146152496338e-02) (29, -8.31822007894515991211e-02) (30, 9.81401056051254272461e-02) (31, 1.49957120418548583984e-01) (32, 3.24489116668701171875e-01) (33, 2.31884077191352844238e-01) (34, -6.20306320488452911377e-02) (35, 1.99244655668735504150e-02) (36, 3.49976837635040283203e-01) (37, 2.09590971469879150391e-01) (38, -4.33209091424942016602e-01) (39, 4.08815264701843261719e-01) (40, 3.70142199099063873291e-02) (41, -1.10611863434314727783e-01) (42, -5.35756111145019531250e-01) (43, 7.73667544126510620117e-02) (44, -9.37420651316642761230e-02) (45, -3.36789786815643310547e-02) (46, -8.73129740357398986816e-02) (47, -6.50194287300109863281e-02) (48, -6.15923851728439331055e-02) (49, -6.54220432043075561523e-02) (50, -3.02707403898239135742e-01) (51, 4.02125477790832519531e-01) (52, -3.02871286869049072266e-01) (53, 5.73142588138580322266e-01) (54, -1.04370350018143653870e-02) (55, 1.97624981403350830078e-01) (56, 4.82430160045623779297e-01) (57, 4.87906634807586669922e-02) (58, -1.32462069392204284668e-01) (59, -3.89006733894348144531e-02) (60, 4.44925911724567413330e-02) (61, 1.53492301702499389648e-01) (62, -9.49895158410072326660e-02) (63, -6.65098130702972412109e-02) (64, 2.87371017038822174072e-02) (65, 6.39173164963722229004e-02) (66, 6.18742823600769042969e-01) (67, 5.75669333338737487793e-02) (68, 1.16713345050811767578e-01) (69, -1.82534400373697280884e-02) (70, -2.62615919113159179688e-01) (71, 3.90586346387863159180e-01) (72, -3.66651229560375213623e-02) (73, 1.17960132658481597900e-01) (74, 9.20367706567049026489e-03) (75, -2.63918459415435791016e-01) (76, -1.87374606728553771973e-01) (77, -9.06280726194381713867e-02) (78, 2.53994256258010864258e-01) (79, -1.16568416357040405273e-01) (80, -3.51905047893524169922e-01) (81, -1.43907843157649040222e-02) (82, -4.69378456473350524902e-02) (83, 9.02008786797523498535e-02) (84, 2.59569436311721801758e-01) (85, -1.04510150849819183350e-02) (86, -1.08781242743134498596e-02) (87, 1.28033354878425598145e-01) (88, -4.14832949638366699219e-01) (89, 2.62042731046676635742e-01) (90, 2.23462775349617004395e-01) (91, -3.09706509113311767578e-01) (92, 1.57339012622833251953e+00) (93, -4.35256183147430419922e-01) (94, 5.04220068454742431641e-01) (95, 7.63600885868072509766e-01) (96, 3.15482646226882934570e-01) (26, 1.93749472498893737793e-01) (27, -7.31958076357841491699e-02) (28, -5.96146471798419952393e-02) (29, 1.42048195004463195801e-01) (30, 2.56819009780883789062e-01) (31, 4.35465157032012939453e-01) (32, 2.38063916563987731934e-01) (33, 3.60765963792800903320e-01) (34, -1.75938501954078674316e-01) (35, 5.75127661228179931641e-01) (36, 1.20878958702087402344e+00) (37, -1.14450983703136444092e-01) (38, 1.56693886965513229370e-02) (39, -1.93759068846702575684e-01) (40, 1.48625552654266357422e+00) (41, 6.26065358519554138184e-02) (42, -6.99850142002105712891e-01) (43, 1.45054519176483154297e-01) (44, 1.22899532318115234375e-01) (45, 5.02329826354980468750e-01) (46, 4.39133346080780029297e-01) (47, -1.05040505528450012207e-01) (48, 3.67606848478317260742e-01) (49, 2.10794582962989807129e-01) (50, 1.02413237094879150391e+00) (51, 4.54495213925838470459e-02) (52, 2.17261463403701782227e-02) (53, 3.04951369762420654297e-01) (54, -3.18903550505638122559e-02) (55, 3.64676602184772491455e-02) (56, -1.60702511668205261230e-01) (57, -2.16657996177673339844e-01) (58, 3.50668191909790039062e-01) (59, -1.64333581924438476562e-01) (60, -7.38247334957122802734e-02) (61, 6.84478402137756347656e-01) (62, -1.46429628133773803711e-01) (63, -1.92415565252304077148e-01) (64, 2.18895956873893737793e-01) (65, 2.97197371721267700195e-01) (66, -4.43211235105991363525e-02) (67, -1.99125155806541442871e-01) (68, 6.28251552581787109375e-01) (69, 1.44465729594230651855e-01) (70, 8.34321379661560058594e-01) (71, -2.49641418457031250000e-01) (72, 2.27767657488584518433e-02) (73, 3.55844885110855102539e-01) (74, 1.74775689840316772461e-01) (75, -5.76925277709960937500e-01) (76, 1.46656230092048645020e-01) (77, 6.01144909858703613281e-01) (78, -1.54366306960582733154e-02) (79, 1.66640743613243103027e-01) (80, 8.66683900356292724609e-01) (81, 1.40978589653968811035e-01) (82, 3.29067856073379516602e-01) (83, 1.13683827221393585205e-01) (84, 4.31740999221801757812e-01) (85, 1.05178155004978179932e-01) (86, 3.01174759864807128906e-01) (87, 9.49861928820610046387e-02) (88, 3.06517750024795532227e-01) (89, -3.42272698879241943359e-01) (90, 2.81840473413467407227e-01) (91, -1.84790089726448059082e-01) (92, 7.85009205341339111328e-01) (93, -8.93700718879699707031e-02) (94, -1.13929189741611480713e-01) (95, 7.90226757526397705078e-01) (96, 1.60317540168762207031e-01) (26, 4.83029663562774658203e-01) (27, 1.81086435914039611816e-02) (28, 5.13609349727630615234e-01) (29, -3.97808164358139038086e-01) (30, -1.04240989685058593750e+00) (31, 5.10706484317779541016e-01) (32, 5.40123701095581054688e-01) (33, 7.73339569568634033203e-01) (34, -3.39062154293060302734e-01) (35, -4.41149510443210601807e-02) (36, 1.59711331129074096680e-01) (37, 3.98637652397155761719e-01) (38, -7.34814405441284179688e-02) (39, -1.04561698436737060547e+00) (40, -6.07129693031311035156e-01) (41, 1.90753862261772155762e-01) (42, 9.97540891170501708984e-01) (43, 7.25631952285766601562e-01) (44, -5.14605402946472167969e-01) (45, 6.01009249687194824219e-01) (46, -4.12117503583431243896e-02) (47, -9.99720931053161621094e-01) (48, 7.38362133502960205078e-01) (49, 8.22314858436584472656e-01) (50, 4.29672628641128540039e-01) (51, -5.43660223484039306641e-01) (52, -3.22584390640258789062e-01) (53, 4.59437698125839233398e-01) (54, -2.76169508695602416992e-01) (55, 3.08935880661010742188e-01) (56, -2.05089777708053588867e-01) (57, 9.44383442401885986328e-02) (58, 7.78165519237518310547e-01) (59, 3.03006649017333984375e-01) (60, 2.84976124763488769531e-01) (61, -1.98228936642408370972e-02) (62, -4.68832999467849731445e-01) (63, -1.34286522865295410156e-01) (64, -2.62178719043731689453e-01) (65, 1.67525589466094970703e-01) (66, -8.14659986644983291626e-03) (67, -1.45520567893981933594e-01) (68, -9.48176383972167968750e-01) (69, 3.62194538116455078125e-01) (70, 3.32643955945968627930e-01) (71, -1.26179039478302001953e+00) (72, 9.74757373332977294922e-01) (73, -3.88437174260616302490e-02) (74, 6.73584416508674621582e-02) (75, 3.29021662473678588867e-01) (76, 1.27799138426780700684e-01) (77, 6.40870332717895507812e-01) (78, 2.93164998292922973633e-01) (79, -4.32055592536926269531e-01) (80, 4.16937649250030517578e-01) (81, 8.97426486015319824219e-01) (82, 2.27698504924774169922e-01) (83, 7.30358600616455078125e-01) (84, 8.18043708801269531250e-01) (85, 2.78833597898483276367e-01) (86, -1.00607347488403320312e+00) (87, 1.02043461799621582031e+00) (88, -1.01146328449249267578e+00) (89, 9.35513496398925781250e-01) (90, 4.66353744268417358398e-01) (91, -3.50836366415023803711e-01) (92, 1.44835263490676879883e-01) (93, -1.75484240055084228516e-01) (94, -1.12051360309123992920e-01) (95, 5.77524542808532714844e-01) (96, 2.79229938983917236328e-01) (26, 3.80168139934539794922e-01) (27, -2.75018543004989624023e-01) (28, -6.36522471904754638672e-02) (29, -2.26598039269447326660e-01) (30, 2.14065885543823242188e+00) (31, 5.28496384620666503906e-01) (32, 8.55309367179870605469e-01) (33, 4.37952190637588500977e-01) (34, 2.90395081043243408203e-01) (35, -1.88168752193450927734e+00) (36, 5.55973947048187255859e-01) (37, -5.04121899604797363281e-01) (38, 6.79279267787933349609e-01) (39, 3.38421426713466644287e-02) (40, 7.57692277431488037109e-01) (41, 1.69960573315620422363e-01) (42, -2.44653597474098205566e-01) (43, 3.94270479679107666016e-01) (44, 2.77274847030639648438e-02) (45, 5.67359507083892822266e-01) (46, 3.43767255544662475586e-01) (47, 1.19163230061531066895e-01) (48, 6.05167508125305175781e-01) (49, 2.63215005397796630859e-01) (50, -1.38435733318328857422e+00) (51, 3.73296141624450683594e-01) (52, -2.36717239022254943848e-01) (53, 3.26502799987792968750e-01) (54, 8.09108138084411621094e-01) (55, -3.17345827817916870117e-01) (56, -3.62390786409378051758e-01) (57, -1.91969335079193115234e-01) (58, 2.14222341775894165039e-01) (59, -7.24963128566741943359e-01) (60, -2.16759753227233886719e+00) (61, 2.37605735659599304199e-01) (62, 3.11789244413375854492e-01) (63, -8.37476074695587158203e-01) (64, 2.49364987015724182129e-01) (65, 3.34711670875549316406e-01) (66, 4.79410588741302490234e-01) (67, 2.83563584089279174805e-01) (68, -2.18307711184024810791e-02) (69, -3.05127829313278198242e-01) (70, 4.14480596780776977539e-01) (71, 1.53575867414474487305e-01) (72, 6.13150373101234436035e-02) (73, 2.40271553397178649902e-01) (74, -2.95597519725561141968e-02) (75, -3.29689800739288330078e-01) (76, -1.70386180281639099121e-01) (77, 1.04379355907440185547e+00) (78, 1.73060134053230285645e-01) (79, 1.45374560356140136719e+00) (80, -1.35302901268005371094e-01) (81, 3.28226536512374877930e-01) (82, 3.30302745103836059570e-01) (83, 6.21359467506408691406e-01) (84, 1.03952959179878234863e-01) (85, -2.17910841107368469238e-01) (86, -4.33106832206249237061e-02) (87, -5.16978979110717773438e-01) (88, -4.19904500246047973633e-01) (89, -8.08233976364135742188e-01) (90, 5.22979378700256347656e-01) (91, -1.27724900841712951660e-01) (92, 3.96997392177581787109e-01) (93, 4.09138828516006469727e-01) (94, -4.70751643180847167969e-01) (95, 4.64088171720504760742e-01) (96, 2.65221953392028808594e-01) (26, 4.18319970369338989258e-01) (27, 2.55777359008789062500e-01) (28, 1.89843192696571350098e-01) (29, -3.14060628414154052734e-01) (30, 1.13798332214355468750e+00) (31, 2.09955260157585144043e-01) (32, 4.42655950784683227539e-01) (33, 3.25462371110916137695e-01) (34, -2.46315419673919677734e-01) (35, 1.56644093990325927734e+00) (36, 4.42601293325424194336e-01) (37, 5.23429989814758300781e-01) (38, -2.82379001379013061523e-01) (39, 5.92371821403503417969e-01) (40, -4.55889999866485595703e-01) (41, 5.93284666538238525391e-01) (42, -6.24764919281005859375e-01) (43, 6.96346640586853027344e-01) (44, -1.45790147781372070312e+00) (45, 2.29173898696899414062e-01) (46, 1.02559244632720947266e+00) (47, 7.35392142087221145630e-03) (48, 1.38350933790206909180e-01) (49, 1.05997896194458007812e+00) (50, 1.24563716351985931396e-01) (51, 9.55045878887176513672e-01) (52, -2.16893568634986877441e-01) (53, 2.88125306367874145508e-01) (54, -1.33452188968658447266e+00) (55, -1.23841607570648193359e+00) (56, -3.37808907032012939453e-01) (57, 2.25372642278671264648e-01) (58, 4.45606112480163574219e-01) (59, -7.97522142529487609863e-02) (60, 2.25498795509338378906e+00) (61, 1.44510688260197639465e-02) (62, -3.85462194681167602539e-01) (63, -1.67088627815246582031e-01) (64, -3.61064761877059936523e-01) (65, 3.51548254489898681641e-01) (66, -1.71327024698257446289e-01) (67, 2.09802165627479553223e-01) (68, -1.31052613258361816406e-01) (69, 2.13136792182922363281e-01) (70, -5.65159738063812255859e-01) (71, 5.82619905471801757812e-01) (72, -6.76334440708160400391e-01) (73, -1.15522727370262145996e-01) (74, 5.23510128259658813477e-02) (75, -3.49821358919143676758e-01) (76, 2.49410703778266906738e-01) (77, 8.65539133548736572266e-01) (78, 6.97092771530151367188e-01) (79, 2.77966469526290893555e-01) (80, 6.03117160499095916748e-02) (81, -3.61503720283508300781e-01) (82, 2.99884378910064697266e-01) (83, 5.44389605522155761719e-01) (84, 5.38662016391754150391e-01) (85, 3.83886456489562988281e-01) (86, 5.33976219594478607178e-02) (87, 7.58750379085540771484e-01) (88, 3.29575955867767333984e-01) (89, 6.11922979354858398438e-01) (90, 4.64287519454956054688e-01) (91, -2.79502421617507934570e-01) (92, 5.35071909427642822266e-01) (93, 9.97444391250610351562e-01) (94, -2.16152355074882507324e-01) (95, 5.75096011161804199219e-01) (96, 4.40789043903350830078e-01) (26, 4.86773878335952758789e-01) (27, 1.09267041087150573730e-01) (28, 1.16319723427295684814e-01) (29, -7.59278610348701477051e-02) (30, 2.40322798490524291992e-01) (31, 3.44551056623458862305e-01) (32, -4.06579285860061645508e-01) (33, -7.41210132837295532227e-02) (34, -1.45095407962799072266e-01) (35, -1.90799146890640258789e-01) (36, 3.90432566404342651367e-01) (37, 6.21877908706665039062e-01) (38, -3.42069193720817565918e-02) (39, 3.76457124948501586914e-01) (40, -3.11152249574661254883e-01) (41, 1.52533546090126037598e-01) (42, -9.54941213130950927734e-02) (43, -5.77611446380615234375e-01) (44, -1.79082483053207397461e-01) (45, 5.28005696833133697510e-02) (46, 3.97562712430953979492e-01) (47, -3.82723838090896606445e-01) (48, 5.72439610958099365234e-01) (49, 7.71228373050689697266e-01) (50, 3.88958692550659179688e-01) (51, 2.75107890367507934570e-01) (52, -3.04145336151123046875e-01) (53, 3.34746271371841430664e-01) (54, -6.80039674043655395508e-02) (55, 4.51137274503707885742e-01) (56, -2.02277317643165588379e-01) (57, -5.59035181999206542969e-01) (58, 3.10382902622222900391e-01) (59, -1.66331738233566284180e-01) (60, -1.72921493649482727051e-01) (61, -7.14431256055831909180e-02) (62, 3.72394949197769165039e-01) (63, -2.89273083209991455078e-01) (64, -1.17643080651760101318e-01) (65, 2.24483773112297058105e-01) (66, -4.95541483163833618164e-01) (67, -1.88125327229499816895e-01) (68, 2.95459181070327758789e-01) (69, 1.15770034492015838623e-01) (70, 3.75950127840042114258e-01) (71, -1.02448201179504394531e+00) (72, 1.71402573585510253906e-01) (73, 1.20465420186519622803e-01) (74, 5.32447099685668945312e-02) (75, -2.90446877479553222656e-01) (76, -1.89788714051246643066e-01) (77, -5.30347898602485656738e-02) (78, -3.66196990013122558594e-01) (79, 2.20202133059501647949e-01) (80, 9.65342700481414794922e-01) (81, 6.91946446895599365234e-01) (82, 6.14837333559989929199e-02) (83, 9.55688118934631347656e-01) (84, 6.00685238838195800781e-01) (85, -2.89925746619701385498e-02) (86, 7.61488229036331176758e-02) (87, 8.28139558434486389160e-02) (88, 1.51612773537635803223e-01) (89, -2.36078113317489624023e-01) (90, 3.01578909158706665039e-01) (91, 4.23270314931869506836e-01) (92, -6.72385096549987792969e-01) (93, -1.55305624008178710938e-01) (94, -1.54355838894844055176e-01) (95, 7.35753417015075683594e-01) (96, 4.39509332180023193359e-01) (26, 2.81564116477966308594e-01) (27, 3.61126601696014404297e-01) (28, 6.07891753315925598145e-03) (29, 6.83790206909179687500e-01) (30, -4.66394573450088500977e-02) (31, 6.45235180854797363281e-01) (32, 3.05951029062271118164e-01) (33, 4.15951579809188842773e-01) (34, -1.80576860904693603516e-01) (35, -8.26177746057510375977e-02) (36, 4.04811114072799682617e-01) (37, -3.56708198785781860352e-01) (38, 2.48526230454444885254e-01) (39, 7.96535536646842956543e-02) (40, -3.35128717124462127686e-02) (41, -2.33717352151870727539e-01) (42, -5.22045731544494628906e-01) (43, -3.23118627071380615234e-01) (44, 1.52307093143463134766e-01) (45, 9.18427109718322753906e-01) (46, 8.12696516513824462891e-01) (47, -1.71703502535820007324e-01) (48, 2.81752884387969970703e-01) (49, 7.87396878004074096680e-02) (50, 2.87546455860137939453e-01) (51, -1.95916429162025451660e-01) (52, -1.18252933025360107422e-01) (53, 2.06603005528450012207e-01) (54, -8.75120386481285095215e-02) (55, -1.21254110708832740784e-02) (56, -1.10898286104202270508e-01) (57, -2.71923214197158813477e-01) (58, 3.77530604600906372070e-01) (59, -1.11279912292957305908e-01) (60, 6.71334862709045410156e-01) (61, -2.85625699907541275024e-02) (62, 3.83071857504546642303e-03) (63, -1.17641779070254415274e-04) (64, 1.67055636644363403320e-01) (65, 3.98647218942642211914e-01) (66, -7.78913199901580810547e-01) (67, 1.43944978713989257812e-01) (68, 8.79121184349060058594e-01) (69, 1.37843579053878784180e-01) (70, -5.40640354156494140625e-01) (71, 6.04468941688537597656e-01) (72, -6.23670071363449096680e-02) (73, 3.70202839374542236328e-01) (74, 2.18307167291641235352e-01) (75, 3.30784589052200317383e-01) (76, -1.10204651951789855957e-01) (77, 1.20826709270477294922e+00) (78, -2.63037115335464477539e-01) (79, 3.50880116224288940430e-01) (80, 1.10992336273193359375e+00) (81, -6.99580907821655273438e-02) (82, 6.52212277054786682129e-02) (83, 4.95584130287170410156e-01) (84, 6.66710495948791503906e-01) (85, -2.83901970833539962769e-02) (86, 1.41394114494323730469e+00) (87, -4.01434823870658874512e-02) (88, -2.07487374544143676758e-01) (89, 9.20464158058166503906e-01) (90, -2.91432477533817291260e-02) (91, -3.22186380624771118164e-01) (92, 1.07276904582977294922e+00) (93, -1.59337252378463745117e-01) (94, 3.64299178123474121094e-01) (95, 6.54836893081665039062e-01) (96, 4.33945149183273315430e-01) (26, 3.42078983783721923828e-01) (27, 7.37965285778045654297e-01) (28, 9.57770466804504394531e-01) (29, 1.69931650161743164062e+00) (30, -6.40739083290100097656e-01) (31, 3.00188660621643066406e-01) (32, 7.95153200626373291016e-01) (33, 4.42127823829650878906e-01) (34, -3.59032332897186279297e-01) (35, -6.67688488960266113281e-01) (36, 5.13302743434906005859e-01) (37, -2.55831271409988403320e-01) (38, -6.96785524487495422363e-02) (39, -4.15516644716262817383e-01) (40, -8.25527906417846679688e-01) (41, 5.99183976650238037109e-01) (42, -1.65643230080604553223e-01) (43, 3.90189826488494873047e-01) (44, -2.35308203846216201782e-02) (45, 5.57657301425933837891e-01) (46, 5.53606212139129638672e-01) (47, 4.02724407613277435303e-02) (48, 7.51266181468963623047e-01) (49, 4.13058280944824218750e-01) (50, -8.99517059326171875000e-01) (51, -3.09892743825912475586e-01) (52, -1.42075210809707641602e-01) (53, 1.74012094736099243164e-01) (54, -2.10055351257324218750e-01) (55, 9.82812047004699707031e-02) (56, 4.57503423094749450684e-02) (57, -4.28233481943607330322e-02) (58, -4.06272821128368377686e-02) (59, 5.06599962711334228516e-01) (60, -2.10772424936294555664e-01) (61, 2.03670680522918701172e-01) (62, -1.17783233523368835449e-01) (63, 1.52884274721145629883e-01) (64, 5.31814396381378173828e-01) (65, 2.01123103499412536621e-01) (66, 4.45605754852294921875e-01) (67, -4.73387151956558227539e-01) (68, 9.64024007320404052734e-01) (69, -1.27148067951202392578e+00) (70, 7.25968956947326660156e-01) (71, 1.27671778202056884766e+00) (72, 9.46385383605957031250e-01) (73, -2.66489803791046142578e-01) (74, -8.91679346561431884766e-01) (75, -9.01789903640747070312e-01) (76, 2.92051106691360473633e-01) (77, 3.12484472990036010742e-01) (78, -4.31341193616390228271e-02) (79, -1.09353446960449218750e+00) (80, -8.52695703506469726562e-01) (81, 7.49867558479309082031e-02) (82, 6.13568723201751708984e-01) (83, 5.96314787864685058594e-01) (84, 5.80594778060913085938e-01) (85, 4.51639860868453979492e-01) (86, -8.85368883609771728516e-01) (87, 1.65656730532646179199e-01) (88, -4.66841757297515869141e-01) (89, 1.67234674096107482910e-01) (90, 3.82552295923233032227e-01) (91, 1.51973158121109008789e-01) (92, 4.55346584320068359375e-01) (93, 3.04010331630706787109e-01) (94, -3.40231120586395263672e-01) (95, 4.88418698310852050781e-01) (96, 3.24319303035736083984e-01) (26, 2.78664648532867431641e-01) (27, -2.68717855215072631836e-01) (28, -3.28236520290374755859e-02) (29, 1.72192886471748352051e-01) (30, 9.49693679809570312500e-01) (31, 4.40036773681640625000e-01) (32, 4.00717884302139282227e-01) (33, 4.46982413530349731445e-01) (34, 1.38533130288124084473e-01) (35, -1.73217225074768066406e+00) (36, 2.96085149049758911133e-01) (37, 8.23028147220611572266e-01) (38, -2.47868195176124572754e-01) (39, -8.57348382472991943359e-01) (40, -3.54908220469951629639e-02) (41, -1.76861512660980224609e+00) (42, -7.70192295312881469727e-02) (43, 2.10041618347167968750e+00) (44, -2.01314687728881835938e+00) (45, 5.54018497467041015625e-01) (46, -3.67307811975479125977e-01) (47, -1.40169918537139892578e-01) (48, 3.74842554330825805664e-01) (49, 6.75340220332145690918e-02) (50, 9.73832249641418457031e-01) (51, 7.71715283393859863281e-01) (52, -5.75776696205139160156e-02) (53, 2.58774340152740478516e-01) (54, -7.57377371191978454590e-02) (55, -1.46414786577224731445e-01) (56, -4.11696024239063262939e-02) (57, -1.65336704254150390625e+00) (58, 2.86104887723922729492e-01) (59, -7.48015642166137695312e-01) (60, 4.88716326653957366943e-02) (61, 8.50807070732116699219e-01) (62, -5.80639354884624481201e-02) (63, -9.66725528240203857422e-01) (64, -1.66034162044525146484e+00) (65, 4.39094275236129760742e-01) (66, 6.73108041286468505859e-01) (67, 2.30441284179687500000e+00) (68, 5.90203464031219482422e-01) (69, 1.92729437351226806641e+00) (70, 7.46624544262886047363e-02) (71, 2.35894513130187988281e+00) (72, -7.32434451580047607422e-01) (73, -2.66593754291534423828e-01) (74, 7.06869482994079589844e-01) (75, -1.01351775228977203369e-01) (76, -9.68361675739288330078e-01) (77, 2.54566979408264160156e+00) (78, 2.27936789393424987793e-01) (79, 2.10883319377899169922e-01) (80, 2.09144935011863708496e-01) (81, 2.53603368997573852539e-01) (82, 5.96893310546875000000e-01) (83, 4.53885525465011596680e-01) (84, 2.65657424926757812500e-01) (85, 1.60846009850502014160e-01) (86, -1.12223243713378906250e+00) (87, -1.94136828184127807617e-01) (88, 2.86391884088516235352e-01) (89, -4.90511298179626464844e-01) (90, 3.13131570816040039062e-01) (91, -1.06924787163734436035e-01) (92, 2.13159844279289245605e-01) (93, 6.14760518074035644531e-01) (94, -5.97653277218341827393e-02) (95, 5.45175015926361083984e-01) (96, 3.63100886344909667969e-01) (26, 4.43888992071151733398e-01) (27, -2.10035871714353561401e-02) (28, -4.55712825059890747070e-01) (29, 2.28652834892272949219e-01) (30, 1.76049613952636718750e+00) (31, 6.76833331584930419922e-01) (32, 5.48440515995025634766e-01) (33, 6.54749453067779541016e-01) (34, -7.59797319769859313965e-02) (35, 4.61725682020187377930e-01) (36, 1.84397220611572265625e-01) (37, -4.48188066482543945312e-01) (38, 1.10944740474224090576e-01) (39, -6.56756818294525146484e-01) (40, -5.41498661041259765625e-01) (41, 5.98281919956207275391e-01) (42, -7.37816572189331054688e-01) (43, 9.32247519493103027344e-01) (44, -5.47941289842128753662e-02) (45, 1.61717042326927185059e-01) (46, -1.21413148939609527588e-01) (47, -1.49838283658027648926e-01) (48, -1.37890458106994628906e+00) (49, 9.70601618289947509766e-01) (50, -7.12489008903503417969e-01) (51, 3.68205517530441284180e-01) (52, -1.60932064056396484375e-01) (53, 3.70786488056182861328e-01) (54, -2.69033432006835937500e-01) (55, -1.15316665172576904297e+00) (56, -1.34866744279861450195e-01) (57, 6.14353716373443603516e-01) (58, 6.26801013946533203125e-01) (59, -4.96571026742458343506e-02) (60, -6.70091450214385986328e-01) (61, 1.92710578441619873047e-01) (62, 9.61759150028228759766e-01) (63, -2.31302723288536071777e-01) (64, 4.09938395023345947266e-01) (65, 5.81715822219848632812e-01) (66, 4.36643838882446289062e-01) (67, -9.35036316514015197754e-02) (68, -6.48240506649017333984e-01) (69, -3.68945628404617309570e-01) (70, -6.55038475990295410156e-01) (71, 6.16856329143047332764e-02) (72, 1.02237713336944580078e+00) (73, 4.63592886924743652344e-01) (74, -4.75212574005126953125e-01) (75, -2.14713662862777709961e-01) (76, 7.26799547672271728516e-01) (77, 1.68443727493286132812e+00) (78, -6.00769817829132080078e-02) (79, 1.35494899749755859375e+00) (80, -3.18917244672775268555e-01) (81, 2.80218236148357391357e-02) (82, -4.41972464323043823242e-01) (83, 6.54304146766662597656e-01) (84, 2.49008804559707641602e-01) (85, -1.25834858417510986328e+00) (86, 6.06499761343002319336e-02) (87, -2.17785254120826721191e-01) (88, -1.08878463506698608398e-01) (89, -1.99490383267402648926e-01) (90, 3.45575660467147827148e-01) (91, 3.23523104190826416016e-01) (92, 7.09456324577331542969e-01) (93, -2.03758239746093750000e+00) (94, -2.24731251597404479980e-01) (95, 1.01439222693443298340e-01) (96, 4.34278607368469238281e-01) (26, 2.71643459796905517578e-01) (27, -1.57806515693664550781e-01) (28, 1.02534025907516479492e-01) (29, -2.46000170707702636719e-01) (30, 2.40721240639686584473e-01) (31, 5.81483066082000732422e-01) (32, 3.92414033412933349609e-01) (33, -4.39096353948116302490e-02) (34, -1.07442013919353485107e-01) (35, -8.51049721240997314453e-02) (36, 5.03270328044891357422e-01) (37, 6.86493694782257080078e-01) (38, 7.74365738034248352051e-02) (39, 3.56803506612777709961e-01) (40, 1.26814925670623779297e+00) (41, 2.44308367371559143066e-01) (42, 9.94733572006225585938e-02) (43, 1.42515271902084350586e-01) (44, -6.59808516502380371094e-02) (45, 4.36582356691360473633e-01) (46, 8.89200925827026367188e-01) (47, -3.20847719907760620117e-01) (48, 3.97975295782089233398e-01) (49, 9.02259528636932373047e-01) (50, -5.19003510475158691406e-01) (51, 6.17369487881660461426e-02) (52, -2.80944824218750000000e-01) (53, 4.46868360042572021484e-01) (54, -1.12041160464286804199e-01) (55, 1.12995100021362304688e+00) (56, 